-0.050222 0.073639 0.099292 -0.093034 0.131274 -0.041238 -0.032932 0.122785 -0.019798 0.015497 -0.013188 -0.009581 0.136994 -0.060751 0.040284 0.128262 0.111066 -0.120868 -0.069326 0.049656 -0.114877 0.062181 0.108114 -0.056524 0.069908 -0.020684 -0.131517 -0.112911 -0.120298 0.037255 0.060747 0.085845 -0.067738 0.077042 -0.009692 0.354944
0.158608 0.122702 -0.056029 0.155350 0.022787 -0.137568 0.118866 0.036349 0.040146 0.158963 0.038637 -0.003579 0.144338 0.000076 -0.083995 0.047935 -0.129456 0.025405 -0.072349 0.000166 0.079061 -0.121274 0.061862 0.018849 0.048153 -0.048801 -0.077776 -0.108335 -0.144632 -0.033759 -0.019856 -0.169384 -0.068954 0.008090 0.040454 -0.270142
0.097208 -0.059091 -0.110989 -0.040818 -0.088834 0.088631 0.098853 0.016994 0.113817 -0.111934 0.049962 0.170717 0.001605 0.135089 -0.126163 -0.160491 0.027791 0.112969 -0.093393 -0.061296 -0.128101 0.132638 0.154008 0.127515 -0.041296 0.001717 -0.056013 -0.030982 0.038731 -0.149022 0.004658 0.072361 0.068919 0.086023 0.078815 0.116663
-0.146429 0.056246 0.027656 -0.064930 -0.161281 -0.065243 0.026381 -0.144694 0.071941 -0.151357 -0.008231 0.011079 0.029160 -0.027741 0.019312 -0.124903 0.000899 -0.124451 0.097130 -0.000099 -0.156867 -0.172697 0.058009 -0.118253 -0.109931 0.121544 0.136124 0.082324 0.025145 0.056863 0.001367 -0.036284 0.026760 0.146936 0.196744 0.453403
0.082312 -0.044005 -0.047288 0.006658 -0.104348 0.171590 -0.039961 0.019060 -0.110318 -0.028809 0.093892 -0.005934 -0.134293 0.172853 -0.103238 0.008146 0.022542 0.112704 -0.028143 -0.027751 0.132536 -0.005671 -0.154516 0.127997 -0.017659 0.009375 -0.027238 -0.089265 -0.055007 0.017249 -0.106105 0.181803 0.055427 0.013745 -0.183920 -0.358894
0.167004 -0.171621 -0.062122 -0.100110 -0.025112 0.062326 -0.117684 0.191135 0.016581 -0.125713 -0.104253 0.140652 -0.027103 -0.079931 -0.133542 -0.011620 0.055959 -0.098296 0.122800 -0.050277 -0.127670 -0.051440 -0.052643 0.124784 -0.204253 0.029567 -0.008488 -0.056400 -0.028419 0.085505 0.009069 -0.053647 0.109191 0.074061 0.007623 -0.135164
0.147780 -0.074506 -0.072091 -0.018262 0.120302 0.082598 -0.099473 0.050599 0.140577 -0.103804 -0.090980 -0.023787 0.155484 0.158423 -0.018278 0.105948 -0.053369 -0.032842 0.101601 0.143290 -0.038935 -0.024804 0.058185 0.033141 -0.082674 -0.078858 -0.026956 -0.103794 -0.163287 -0.002041 0.092018 0.000018 -0.042567 0.143215 0.073033 0.264389
0.067629 0.101300 0.053596 0.145624 -0.083431 0.000552 -0.025824 -0.104891 -0.045213 -0.102521 -0.111961 0.061049 0.078862 -0.005798 -0.028752 0.157651 0.122639 0.074483 0.034475 -0.094143 0.038503 0.111093 -0.132195 -0.056987 0.029481 0.085555 -0.148683 -0.107260 -0.109630 0.103425 -0.066657 0.044337 0.008526 -0.028738 0.221636 0.241655
-0.090051 -0.020938 0.178383 -0.138855 -0.003334 0.183901 -0.131857 0.095641 -0.070368 0.080996 -0.092692 0.161943 0.155285 -0.086788 -0.101057 0.127874 -0.066171 0.009796 -0.078031 -0.154614 0.050281 0.155616 0.023335 0.046830 0.063571 0.087454 0.147763 -0.092390 0.036521 0.127258 -0.111580 -0.118448 0.075856 -0.178440 -0.184709 -0.385135
-0.019098 -0.085640 0.019024 0.009108 -0.068520 0.087367 0.142538 0.044308 0.139790 -0.032643 -0.057870 0.077050 0.005989 -0.002863 -0.055296 0.071313 0.027331 -0.121775 -0.016429 -0.060038 0.074453 0.168056 0.164222 0.075528 -0.076709 0.127757 0.022287 -0.114388 0.006099 -0.166910 -0.005962 -0.162356 -0.193008 0.112642 0.024739 0.395118
0.122270 0.122155 -0.101720 -0.148735 0.047320 0.082676 -0.073548 0.029948 -0.048611 -0.126102 -0.076724 -0.011980 0.162321 0.114201 0.027726 -0.013132 0.071924 -0.129017 -0.054886 -0.068421 -0.002623 0.143387 -0.025363 -0.080225 0.000922 -0.119623 -0.137188 -0.023000 -0.069360 0.078097 0.098569 -0.022827 0.167712 -0.094321 -0.166126 -0.163829
-0.143788 -0.123367 0.108219 -0.001675 0.111531 -0.058583 -0.002235 -0.056715 -0.138338 -0.020631 0.087328 0.100337 0.147279 0.031421 0.078589 -0.045035 -0.048726 -0.101788 -0.017289 0.109812 0.151746 -0.136488 -0.007568 -0.011546 0.113628 -0.011015 0.080667 -0.103253 0.049998 -0.017573 -0.164375 0.083528 -0.131955 0.028978 0.220583 0.275214
0.016720 0.021883 0.043219 0.058503 -0.004013 0.114885 -0.124150 -0.027173 0.068293 0.154228 -0.030472 0.059678 -0.066415 0.100427 0.094306 -0.125186 -0.042798 -0.073223 0.115865 -0.018651 0.064054 0.146481 -0.055704 -0.124573 0.006170 0.066349 0.136567 0.072971 0.080327 -0.142733 -0.195997 -0.134451 0.061855 0.084634 0.081228 0.233836
0.065475 0.100239 0.093973 0.146341 0.011437 -0.026462 0.082251 -0.051031 0.178522 -0.101612 0.149639 -0.113134 -0.124898 0.125009 -0.081591 0.045867 0.129672 0.064168 -0.142598 -0.010143 0.084589 -0.179842 -0.091447 -0.077029 0.138494 0.132279 -0.007828 -0.083018 0.107198 -0.072657 -0.101052 -0.055078 -0.133249 0.016317 -0.198861 -0.289003
-0.049255 -0.104378 -0.063014 -0.121207 0.037738 0.127479 -0.096755 0.089175 -0.101956 0.160677 -0.075079 0.093998 0.170481 -0.087375 -0.045843 0.149303 -0.035745 -0.096206 -0.135332 -0.131361 0.156717 -0.009113 -0.110425 0.034779 0.064968 0.036065 0.146650 -0.113391 -0.153096 0.092250 -0.003470 -0.100069 0.130256 0.140177 -0.011175 0.347185
0.022793 0.115366 -0.163490 -0.075882 0.098164 0.007123 -0.037971 -0.099220 0.143982 -0.064698 -0.007320 -0.142087 -0.003434 -0.044419 0.088836 0.073298 -0.088031 -0.044220 -0.063534 -0.017959 -0.177847 0.105624 -0.006188 -0.041020 0.132881 -0.094144 0.079670 0.148143 -0.077767 0.137712 0.068128 0.045003 -0.043059 -0.166974 -0.223211 -0.150572
0.047098 -0.149857 0.075352 0.012515 0.049455 -0.028794 0.030087 -0.009534 0.092686 0.098555 0.077538 -0.181932 -0.199248 -0.140282 -0.047105 0.104265 0.104663 -0.081655 -0.205461 -0.209790 -0.147179 -0.198471 -0.090271 0.051925 0.061318 0.013038 0.034842 -0.060418 0.118041 0.119858 0.088342 -0.062759 0.095878 -0.055597 0.236436 0.463144
0.077422 -0.014957 -0.147467 0.053403 0.045007 -0.007838 0.095935 -0.009699 0.048116 -0.132925 -0.066740 -0.027791 -0.010837 -0.109911 0.123767 0.100404 0.094576 -0.135185 -0.140819 -0.157272 0.100555 -0.061553 -0.106202 0.123523 0.060236 0.190242 0.168794 0.031037 -0.140021 0.163874 0.033736 -0.138196 0.013887 0.009514 -0.130664 -0.427488
0.114071 0.006106 -0.001777 0.085074 -0.116254 -0.100309 -0.154675 0.127052 0.056309 -0.099863 0.012686 -0.026947 0.125995 0.066362 0.105593 0.025700 0.023456 0.079297 -0.134325 0.096601 -0.007103 0.090633 -0.057001 0.005563 -0.084800 -0.166153 -0.069325 0.017633 0.017351 -0.113447 -0.076653 0.070101 -0.081798 0.055592 0.185076 0.437308
-0.118130 0.139622 -0.009510 0.043087 -0.034174 -0.034809 -0.142014 -0.049452 -0.030117 -0.000364 -0.084160 0.157455 -0.105546 0.020974 0.126857 -0.021726 0.036485 0.162682 -0.138354 -0.001116 -0.157590 -0.010350 0.025804 0.062798 0.113194 0.187215 -0.107991 0.120740 -0.027009 -0.127382 -0.122570 -0.001083 -0.145980 0.095876 -0.059456 -0.259005
-0.108409 0.037788 -0.037063 -0.037860 -0.125502 -0.081146 0.086216 0.153901 -0.044745 -0.007439 -0.028308 -0.064853 0.132532 0.084098 0.057533 -0.120985 0.023751 -0.050997 -0.153153 0.006989 -0.006805 0.019689 0.105679 -0.064944 -0.162170 -0.043259 -0.071046 0.083692 0.068309 0.077904 -0.068476 0.161179 0.092183 -0.035902 0.009965 -0.416484
0.142023 0.012014 -0.058266 0.036522 -0.002082 -0.099917 0.107271 -0.045309 0.110734 -0.091974 0.130038 -0.005673 0.097293 0.032607 0.049345 0.148228 0.071707 -0.114715 0.119385 0.032892 -0.075417 0.071268 -0.128294 -0.024083 -0.140623 -0.090784 0.100197 0.056743 0.097349 -0.056596 -0.166068 0.135779 -0.176403 0.158904 0.007019 0.238467
0.166564 -0.023302 0.089290 0.123370 0.147923 -0.088207 0.096615 -0.018316 -0.053590 0.072784 -0.081988 0.039349 -0.033845 0.001043 -0.065192 -0.091465 0.027439 -0.084744 0.010606 -0.063113 -0.078222 -0.116092 -0.161595 -0.130646 0.150519 -0.129872 -0.133305 0.125608 -0.014067 0.083023 0.055322 0.004705 -0.051471 0.071304 0.071918 -0.276253
0.186900 -0.013844 -0.073170 -0.008086 -0.049442 -0.064704 -0.026669 0.133286 0.019459 0.078324 0.058280 -0.069283 0.160838 0.013588 0.177729 0.093081 0.047381 0.080421 -0.134273 -0.048498 0.128390 -0.140956 0.046491 0.148202 -0.134071 -0.113472 0.005515 -0.141673 0.089343 -0.187602 -0.087055 0.036631 0.035322 -0.043912 -0.210945 -0.266287
-0.007000 0.108734 -0.052087 0.092262 -0.021341 -0.107423 0.061650 0.037566 0.139607 -0.053849 -0.005153 0.094009 -0.091204 -0.005760 0.084143 -0.060404 -0.001489 0.054068 -0.075929 -0.168107 0.114550 -0.062913 0.061225 -0.129266 0.018339 0.077526 -0.112816 -0.088043 -0.133572 -0.015543 0.185125 -0.086274 0.089646 -0.040081 -0.005772 -0.363903
0.058613 -0.008736 -0.031003 -0.152775 -0.140954 0.124069 0.021838 0.093711 -0.136505 0.144714 0.039492 -0.128253 -0.129579 -0.086565 0.118744 -0.093205 -0.136847 0.120890 0.021607 -0.006038 0.057968 -0.112610 -0.050150 0.084644 -0.032978 -0.046801 -0.012160 0.118861 0.056331 0.037697 0.052450 0.122800 0.070408 -0.110235 0.148457 0.250654
0.099700 0.049065 -0.035607 -0.000283 0.159203 0.152196 -0.075443 0.029110 0.059771 0.043696 -0.090590 -0.041576 -0.079574 -0.039151 -0.132868 0.091446 0.003379 0.026040 0.030380 -0.124615 -0.045089 0.184303 -0.122774 -0.122820 -0.100759 0.123574 -0.042802 0.046559 -0.107501 0.112346 -0.119452 0.108666 -0.020918 0.090271 0.099867 0.255717
-0.125171 0.016369 0.113432 -0.145323 0.130617 -0.103458 0.151960 -0.056860 -0.075377 0.110396 0.088286 -0.004118 0.103109 -0.000970 -0.057285 -0.019671 0.000617 -0.129976 0.068643 0.033345 -0.076119 0.142049 -0.080608 -0.044106 -0.029031 -0.116079 0.136960 -0.060551 -0.080774 0.027963 0.080303 -0.025602 0.047003 -0.112723 -0.083610 -0.326730
-0.033529 -0.050120 -0.091152 0.175822 0.133513 -0.019559 -0.018581 0.012846 0.105894 0.104248 -0.010164 0.056254 -0.014930 -0.109515 0.003219 0.040469 -0.068122 -0.022235 0.018338 -0.098752 0.089385 -0.085636 -0.031042 -0.061888 0.066391 -0.044626 0.091636 0.084283 0.046232 -0.082989 -0.051507 -0.110100 0.107506 0.039520 0.113964 0.240253
-0.044976 -0.053103 -0.036846 0.140971 -0.108519 -0.003813 -0.009498 -0.124952 0.186938 0.039469 -0.008714 -0.116613 0.026675 -0.129465 -0.006524 -0.137899 -0.060274 0.092409 0.089296 0.069929 -0.149521 0.058277 -0.041776 -0.024211 0.073987 -0.000278 0.006873 -0.132448 0.110032 0.097758 0.055373 0.147709 0.076602 -0.156331 -0.116531 -0.352391
0.030255 -0.126110 0.129670 -0.163703 0.090136 0.088042 -0.062904 -0.127507 -0.067608 -0.106165 0.031564 0.087587 0.024057 -0.017180 -0.108036 0.064558 0.019618 0.010728 -0.120853 0.046459 -0.093365 0.138057 0.071851 -0.095766 -0.171245 -0.075181 0.116044 0.064809 0.069928 0.101491 0.035593 -0.073923 -0.123962 0.048642 -0.028618 -0.273091
0.012054 0.051615 0.143934 -0.137283 0.006394 0.102457 -0.162822 -0.028187 -0.012953 -0.161291 -0.042886 -0.172593 0.114706 0.120962 0.039273 -0.164760 0.133133 0.042378 -0.181386 -0.031790 -0.014206 -0.088021 -0.083846 0.041066 -0.190272 -0.036843 -0.165916 0.036153 0.133210 0.058179 0.106026 -0.149432 0.108395 0.032767 0.261877 0.421641
