0.034915 0.000773 -0.010013 -0.006113 0.000576 -0.022579 -0.014310 -0.053370 -0.031265 -0.036098 -0.056533 -0.061188 -0.058679 -0.076174 -0.080555 -0.077387 -0.099637 -0.114362 -0.111588 -0.120328 -0.136000 -0.147065 -0.141249 -0.150428 -0.126813 -0.130216 -0.114510 -0.115901 -0.119138 -0.105723 -0.121754 -0.106369 -0.094552 -0.047929 0.068006 0.320074
0.028370 -0.006125 -0.009196 -0.011178 -0.002994 -0.009079 -0.024746 -0.037849 -0.058476 -0.035587 -0.047140 -0.066690 -0.063100 -0.066724 -0.083930 -0.078964 -0.083786 -0.109560 -0.114906 -0.111714 -0.123558 -0.135661 -0.142266 -0.142537 -0.140048 -0.116367 -0.109820 -0.101598 -0.107836 -0.103452 -0.100936 -0.106879 -0.081726 -0.029874 0.093503 0.323504
0.045072 -0.004223 -0.013763 -0.008870 -0.006127 -0.007320 -0.007234 -0.039098 -0.037755 -0.056248 -0.038783 -0.050825 -0.065618 -0.066830 -0.071408 -0.078127 -0.081276 -0.091956 -0.109024 -0.111964 -0.114240 -0.123630 -0.133903 -0.145234 -0.135473 -0.130142 -0.099755 -0.097404 -0.093705 -0.094994 -0.097770 -0.089736 -0.086658 -0.024725 0.094344 0.318027
-0.012056 -0.004570 -0.020585 -0.020750 -0.013001 -0.019804 -0.018764 -0.033694 -0.050122 -0.051577 -0.069779 -0.059100 -0.065584 -0.080377 -0.081407 -0.075717 -0.090969 -0.098997 -0.098783 -0.115994 -0.122261 -0.118066 -0.123347 -0.136435 -0.137035 -0.122157 -0.109371 -0.086830 -0.089622 -0.078606 -0.087965 -0.085560 -0.064311 -0.016093 0.127291 0.367578
0.120533 0.010217 0.014450 0.004105 0.008049 0.011620 0.014258 0.001500 -0.000597 -0.014887 -0.014330 -0.038816 -0.019286 -0.031403 -0.051243 -0.042817 -0.046721 -0.067787 -0.069950 -0.073672 -0.092424 -0.102135 -0.100131 -0.115206 -0.123847 -0.122067 -0.108593 -0.100679 -0.079488 -0.080549 -0.077472 -0.077740 -0.070052 -0.025191 0.060242 0.263505
0.079362 0.021855 -0.005072 0.007703 0.001595 -0.004303 0.003282 -0.012640 -0.013863 -0.013041 -0.032441 -0.039094 -0.055625 -0.043259 -0.054024 -0.063690 -0.064451 -0.072224 -0.085005 -0.087921 -0.092614 -0.108749 -0.113336 -0.115347 -0.118654 -0.123514 -0.115937 -0.103992 -0.098972 -0.078856 -0.079309 -0.072813 -0.061919 -0.021342 0.088089 0.288461
0.123168 0.026055 0.020773 0.005841 0.024586 0.011897 0.013846 0.002696 -0.001010 0.005069 -0.000198 -0.024401 -0.022928 -0.046521 -0.033300 -0.035994 -0.052239 -0.057817 -0.060597 -0.072141 -0.078428 -0.084127 -0.101600 -0.110522 -0.105462 -0.104858 -0.107929 -0.104417 -0.094793 -0.094883 -0.071324 -0.072570 -0.054879 -0.019865 0.067737 0.259912
0.099787 0.017356 0.012057 0.018764 0.010326 0.017799 0.011005 -0.007522 -0.004734 -0.005965 -0.007000 -0.015734 -0.031765 -0.037021 -0.058235 -0.037662 -0.044369 -0.066942 -0.066483 -0.067571 -0.084128 -0.085636 -0.091255 -0.109343 -0.110586 -0.101849 -0.098497 -0.102307 -0.100230 -0.093827 -0.088153 -0.066210 -0.056218 -0.009695 0.078702 0.266819
0.022278 0.004000 0.001371 0.001749 0.011466 -0.004299 0.005948 -0.018972 -0.025753 -0.019868 -0.026749 -0.030933 -0.035989 -0.056519 -0.055445 -0.071437 -0.057817 -0.070517 -0.083321 -0.081369 -0.087193 -0.095621 -0.093830 -0.102820 -0.110190 -0.105731 -0.094981 -0.089729 -0.098686 -0.095018 -0.086913 -0.081368 -0.048974 -0.006189 0.101765 0.323250
0.068123 0.011110 0.006625 0.008953 0.013589 0.017262 0.004394 -0.000380 -0.012821 -0.014592 -0.013763 -0.025237 -0.025353 -0.033743 -0.052923 -0.052453 -0.070239 -0.061522 -0.068155 -0.083741 -0.086533 -0.082957 -0.093456 -0.096744 -0.099015 -0.107800 -0.098768 -0.091960 -0.086494 -0.095786 -0.094658 -0.087561 -0.067716 -0.004906 0.087824 0.285383
0.072981 -0.001136 -0.002427 0.007654 0.009960 0.009372 0.016847 -0.010822 -0.004091 -0.013545 -0.019760 -0.023048 -0.027230 -0.032676 -0.039721 -0.054179 -0.056703 -0.078171 -0.064324 -0.072199 -0.088496 -0.083969 -0.083333 -0.096814 -0.098071 -0.092465 -0.095450 -0.094465 -0.079859 -0.086601 -0.090276 -0.092248 -0.067809 -0.021340 0.092187 0.285590
0.084863 0.011018 -0.011289 0.001643 0.013026 0.010364 0.015324 0.006992 -0.008189 0.000316 -0.012690 -0.020697 -0.020266 -0.030631 -0.033362 -0.035127 -0.053185 -0.058243 -0.078326 -0.064597 -0.073324 -0.083985 -0.080723 -0.084051 -0.098039 -0.088995 -0.080716 -0.091038 -0.083036 -0.080845 -0.078808 -0.087546 -0.075862 -0.025513 0.069487 0.277026
0.105722 0.013498 0.002300 -0.005728 0.010037 0.015367 0.019376 0.008097 0.012643 -0.000580 0.007126 -0.009303 -0.014777 -0.019831 -0.027321 -0.024721 -0.031075 -0.051050 -0.054902 -0.074394 -0.061638 -0.063584 -0.079027 -0.081368 -0.081231 -0.081963 -0.075261 -0.071421 -0.077402 -0.079121 -0.070930 -0.073274 -0.068224 -0.031507 0.066495 0.261883
0.073446 0.008735 -0.003604 -0.004881 -0.008418 -0.001017 0.008331 -0.003764 -0.002943 0.002921 -0.013547 -0.011072 -0.023325 -0.034354 -0.033817 -0.034806 -0.037790 -0.045267 -0.063936 -0.065017 -0.086859 -0.064310 -0.071921 -0.089649 -0.082507 -0.074017 -0.076724 -0.068393 -0.065198 -0.074067 -0.075314 -0.066253 -0.057781 -0.024940 0.066027 0.285900
0.099121 0.012498 0.001547 -0.002166 0.002328 -0.006566 0.006078 0.001959 0.001335 0.003855 0.007240 -0.013386 -0.006705 -0.024007 -0.032031 -0.026172 -0.034016 -0.037704 -0.042940 -0.060743 -0.064718 -0.075425 -0.064487 -0.073749 -0.081259 -0.072483 -0.064383 -0.069909 -0.059167 -0.061355 -0.069191 -0.069375 -0.051071 -0.016917 0.061837 0.258244
0.099658 0.019215 0.000448 0.000699 0.002446 0.001538 -0.003178 -0.004236 0.001842 0.002764 0.003929 0.002714 -0.013867 -0.013585 -0.026848 -0.027955 -0.030451 -0.036640 -0.039094 -0.043910 -0.064136 -0.058960 -0.078581 -0.067746 -0.066451 -0.072326 -0.064841 -0.056290 -0.059475 -0.058491 -0.054260 -0.065699 -0.053976 -0.012909 0.065656 0.252224
-0.001506 -0.008540 -0.007972 -0.019448 -0.015349 -0.019894 -0.021112 -0.035108 -0.030716 -0.023615 -0.022894 -0.027110 -0.028770 -0.044157 -0.036059 -0.044882 -0.053974 -0.053559 -0.056105 -0.057225 -0.063817 -0.068467 -0.068366 -0.085640 -0.061500 -0.057986 -0.064136 -0.051383 -0.047817 -0.051568 -0.045426 -0.043899 -0.044229 -0.004413 0.102308 0.369743
0.062598 0.010907 -0.006971 -0.004230 -0.007623 -0.010856 -0.011978 -0.020390 -0.027716 -0.021768 -0.015938 -0.021043 -0.022793 -0.025301 -0.038004 -0.033107 -0.046739 -0.054053 -0.052398 -0.057548 -0.058606 -0.059989 -0.074814 -0.075152 -0.087483 -0.066133 -0.059367 -0.068249 -0.054759 -0.054343 -0.055047 -0.052967 -0.041597 -0.013745 0.075624 0.282848
0.092590 0.020384 0.006219 -0.000291 0.004640 -0.002637 -0.000423 -0.011316 -0.012822 -0.020041 -0.011388 -0.010032 -0.013217 -0.017680 -0.015488 -0.027252 -0.027362 -0.039811 -0.044672 -0.044051 -0.052513 -0.048877 -0.056663 -0.071287 -0.068571 -0.076777 -0.054820 -0.053111 -0.056918 -0.056602 -0.044506 -0.053119 -0.041574 -0.004720 0.062131 0.253920
0.093800 0.013181 0.006075 0.002381 0.000929 0.002778 -0.000741 -0.010681 -0.014149 -0.013660 -0.020616 -0.017296 -0.014099 -0.019879 -0.020951 -0.014568 -0.034045 -0.029678 -0.042343 -0.046952 -0.050503 -0.050410 -0.053224 -0.056927 -0.068110 -0.063549 -0.070606 -0.050270 -0.047078 -0.060346 -0.046209 -0.044768 -0.043077 -0.004280 0.072150 0.253529
0.104326 0.017287 0.000997 0.005984 0.007513 0.002855 0.006118 -0.008933 -0.009337 -0.012501 -0.011717 -0.023600 -0.017591 -0.018104 -0.020013 -0.016238 -0.018441 -0.035663 -0.030889 -0.041022 -0.051646 -0.046457 -0.053002 -0.053571 -0.054169 -0.062842 -0.055334 -0.066854 -0.044259 -0.049780 -0.050442 -0.048231 -0.035527 -0.008734 0.064656 0.245479
0.107908 0.019866 0.004456 -0.000219 0.009296 0.008267 0.004636 -0.002797 -0.010300 -0.009546 -0.011229 -0.014184 -0.025254 -0.023580 -0.018824 -0.015818 -0.021175 -0.019056 -0.035983 -0.030164 -0.044900 -0.048004 -0.049261 -0.054617 -0.049661 -0.048768 -0.054917 -0.051949 -0.060604 -0.045762 -0.039240 -0.052120 -0.037601 -0.000372 0.059921 0.242366
0.088046 0.015439 0.003795 -0.002635 -0.001775 0.004711 0.002887 -0.009247 -0.010609 -0.017461 -0.015614 -0.022300 -0.025454 -0.039991 -0.030165 -0.021941 -0.026987 -0.029120 -0.026983 -0.041440 -0.040867 -0.046796 -0.056245 -0.055042 -0.052146 -0.046884 -0.042857 -0.052187 -0.049601 -0.061476 -0.036501 -0.040373 -0.041615 -0.001808 0.073242 0.260128
0.068175 0.004215 -0.000714 -0.006102 -0.008354 -0.008479 -0.002132 -0.012300 -0.021004 -0.020238 -0.022325 -0.027767 -0.034406 -0.040067 -0.045014 -0.034469 -0.033659 -0.037359 -0.036422 -0.033543 -0.054104 -0.040477 -0.054969 -0.059217 -0.050929 -0.048595 -0.040839 -0.038473 -0.050364 -0.048350 -0.053548 -0.036494 -0.029855 -0.005678 0.077594 0.295312
0.114979 0.023682 0.002992 0.001295 0.005064 0.002405 0.002829 0.001041 -0.004288 -0.009128 -0.003995 -0.016939 -0.018272 -0.028379 -0.028281 -0.033795 -0.030621 -0.027246 -0.030893 -0.030485 -0.031755 -0.040911 -0.043139 -0.051312 -0.052845 -0.046826 -0.042518 -0.038566 -0.035787 -0.052406 -0.040361 -0.057784 -0.031323 0.000893 0.057840 0.237809
0.046007 0.005163 0.001308 -0.015126 -0.010911 -0.008837 -0.012131 -0.021279 -0.019054 -0.022824 -0.021762 -0.027486 -0.037847 -0.041314 -0.041521 -0.038519 -0.050611 -0.047618 -0.039624 -0.041015 -0.041901 -0.032895 -0.048525 -0.039847 -0.046366 -0.043451 -0.035165 -0.032022 -0.030570 -0.029341 -0.035164 -0.034214 -0.038041 0.013473 0.093435 0.333936
0.117478 0.015499 0.007669 0.002114 -0.000709 0.002605 0.003930 -0.005159 -0.009171 -0.004463 -0.002226 -0.013792 -0.014582 -0.027008 -0.026292 -0.027913 -0.030792 -0.042174 -0.037009 -0.030950 -0.034605 -0.030429 -0.034523 -0.046383 -0.038879 -0.045147 -0.041913 -0.035461 -0.034737 -0.034690 -0.027462 -0.042587 -0.035036 -0.015433 0.065652 0.239616
0.083223 0.009585 -0.005242 -0.008417 -0.004493 -0.010428 -0.007408 -0.015122 -0.017742 -0.022345 -0.014014 -0.021286 -0.029216 -0.033183 -0.035792 -0.035595 -0.041558 -0.045690 -0.052725 -0.045153 -0.041551 -0.037346 -0.039733 -0.034016 -0.046019 -0.034387 -0.037570 -0.036213 -0.031236 -0.033503 -0.023834 -0.025108 -0.031744 -0.000176 0.061453 0.301457
0.128652 0.021476 0.004546 -0.006915 0.003068 0.003977 -0.000570 -0.002896 -0.004247 -0.008417 -0.008147 -0.008251 -0.011317 -0.023353 -0.019611 -0.024912 -0.027745 -0.034987 -0.036311 -0.044747 -0.037756 -0.028987 -0.037326 -0.033052 -0.031053 -0.040480 -0.027757 -0.034425 -0.033316 -0.032673 -0.026988 -0.026470 -0.022165 -0.003598 0.058150 0.225334
0.114369 0.017803 0.001077 -0.006104 -0.007453 -0.002731 -0.000252 -0.012357 -0.009014 -0.012495 -0.012353 -0.019922 -0.017255 -0.025295 -0.026956 -0.024594 -0.033906 -0.038986 -0.042055 -0.042864 -0.050340 -0.039043 -0.039518 -0.034877 -0.035413 -0.027827 -0.034770 -0.024545 -0.031972 -0.034263 -0.023657 -0.026464 -0.020575 0.008004 0.058787 0.251762
0.132478 0.028520 0.006596 -0.003742 0.000049 -0.005165 0.002637 0.000101 -0.008106 -0.007191 -0.005880 -0.013447 -0.016247 -0.018467 -0.017790 -0.023104 -0.023621 -0.034155 -0.036397 -0.039504 -0.039315 -0.044907 -0.044109 -0.034025 -0.035876 -0.031014 -0.021212 -0.032969 -0.020870 -0.033800 -0.028330 -0.026118 -0.024293 0.009057 0.064315 0.223629
0.121362 0.023328 0.007187 -0.004303 -0.005960 -0.004905 -0.007201 -0.007563 -0.006052 -0.016460 -0.011762 -0.017563 -0.020696 -0.029928 -0.022466 -0.024279 -0.031069 -0.033509 -0.040864 -0.041452 -0.044822 -0.042018 -0.055927 -0.042875 -0.036682 -0.032192 -0.026599 -0.017367 -0.031442 -0.023731 -0.025113 -0.028038 -0.021581 0.007066 0.068317 0.256577
0.130032 0.032791 0.010768 0.001813 0.001696 -0.002353 0.001644 -0.007372 -0.003502 -0.005099 -0.009475 -0.013760 -0.013423 -0.021612 -0.022759 -0.018676 -0.020973 -0.030483 -0.030784 -0.036440 -0.039267 -0.039942 -0.047201 -0.050251 -0.042873 -0.033061 -0.027724 -0.022049 -0.019244 -0.032809 -0.016980 -0.027958 -0.025954 0.007550 0.057987 0.233004
0.117332 0.011664 0.007962 -0.003833 -0.002459 -0.005842 -0.005645 -0.010829 -0.018476 -0.015803 -0.012530 -0.025046 -0.023613 -0.029602 -0.028158 -0.032625 -0.028992 -0.034989 -0.038355 -0.038695 -0.046005 -0.040018 -0.052386 -0.045443 -0.053360 -0.039020 -0.029110 -0.022734 -0.024093 -0.018294 -0.022811 -0.017289 -0.020799 0.005225 0.069660 0.268168
0.136162 0.026354 -0.000601 0.003494 0.002923 0.002694 0.002557 -0.004521 -0.007115 -0.013509 -0.007112 -0.010113 -0.017357 -0.020329 -0.019073 -0.021977 -0.024729 -0.025211 -0.026882 -0.032849 -0.031787 -0.035704 -0.044929 -0.042679 -0.046065 -0.046098 -0.035801 -0.025810 -0.022979 -0.024609 -0.012661 -0.026585 -0.014041 0.004485 0.051461 0.221682
0.111627 0.029024 -0.000672 -0.015217 -0.003139 -0.007869 -0.005647 -0.012247 -0.017332 -0.021859 -0.025669 -0.025416 -0.026194 -0.037367 -0.032423 -0.036043 -0.036800 -0.044246 -0.041613 -0.042513 -0.044468 -0.042372 -0.052926 -0.047111 -0.053093 -0.045481 -0.048538 -0.034702 -0.026938 -0.025760 -0.020717 -0.015193 -0.022254 0.014899 0.072453 0.253611
