-0.023734 -0.023627 -0.023342 -0.022955 -0.022489 -0.021876 -0.021122 -0.020231 -0.019215 -0.018110 -0.016697 -0.015001 -0.012723 -0.010048 -0.006874 -0.003290 0.000628 0.004938 0.009483 0.014240 0.019415 0.024942 0.031477 0.040946 0.050184 0.059111 0.067807 0.076095 0.083988 0.091545 0.098753 0.105547 0.111986 0.118152 0.124050 0.129501
-0.023108 -0.022858 -0.022497 -0.022027 -0.021403 -0.020688 -0.019852 -0.018826 -0.017661 -0.016402 -0.014903 -0.013110 -0.010841 -0.008081 -0.004902 -0.001351 0.002499 0.006615 0.010989 0.015508 0.020400 0.025776 0.032058 0.040737 0.049253 0.057484 0.065454 0.073126 0.080449 0.087413 0.094137 0.100522 0.106556 0.112342 0.117900 0.123088
-0.021084 -0.021015 -0.020775 -0.020509 -0.020079 -0.019491 -0.018852 -0.018054 -0.017067 -0.015978 -0.014682 -0.013166 -0.011156 -0.008761 -0.005704 -0.002321 0.001401 0.005412 0.009591 0.014007 0.018780 0.024033 0.030381 0.039003 0.047452 0.055723 0.063755 0.071437 0.078840 0.085870 0.092601 0.099056 0.105180 0.111001 0.116592 0.121826
-0.023215 -0.022640 -0.021900 -0.021050 -0.020085 -0.018941 -0.017663 -0.016260 -0.014700 -0.012969 -0.011005 -0.008834 -0.006331 -0.003512 -0.000421 0.003055 0.006732 0.010623 0.014638 0.018741 0.023104 0.027770 0.033203 0.040366 0.047292 0.054042 0.060641 0.066981 0.073085 0.078959 0.084617 0.090056 0.095301 0.100348 0.105171 0.109706
-0.006250 -0.007522 -0.008873 -0.010183 -0.011401 -0.012725 -0.013950 -0.015076 -0.016265 -0.017384 -0.018158 -0.018819 -0.019121 -0.019060 -0.017957 -0.016239 -0.013677 -0.010493 -0.006664 -0.002266 0.003036 0.009478 0.017622 0.028958 0.040464 0.051878 0.062918 0.073102 0.084336 0.092757 0.100585 0.107741 0.114290 0.120396 0.126074 0.131288
-0.014960 -0.015308 -0.015582 -0.015877 -0.016027 -0.016075 -0.016067 -0.015924 -0.015642 -0.015340 -0.014792 -0.014007 -0.012783 -0.011243 -0.009132 -0.006396 -0.003328 0.000324 0.004246 0.008393 0.012957 0.018103 0.024465 0.033341 0.042074 0.050721 0.059043 0.067057 0.074817 0.082194 0.089220 0.095932 0.102239 0.108247 0.114010 0.119386
-0.005279 -0.006690 -0.007937 -0.009217 -0.010567 -0.011887 -0.013125 -0.014334 -0.015487 -0.016550 -0.017487 -0.018308 -0.018645 -0.018608 -0.017774 -0.016341 -0.014068 -0.009096 -0.005210 -0.000305 0.005161 0.011379 0.018997 0.029421 0.039892 0.050143 0.060133 0.069457 0.078243 0.086521 0.094218 0.101267 0.107874 0.113928 0.119540 0.124857
-0.008930 -0.009739 -0.010568 -0.011217 -0.011853 -0.012516 -0.013084 -0.013540 -0.013989 -0.014302 -0.014424 -0.014459 -0.014078 -0.013329 -0.011904 -0.010077 -0.007884 -0.005068 -0.001852 0.001970 0.006478 0.011851 0.018584 0.027884 0.037214 0.046591 0.055798 0.064797 0.073336 0.081508 0.089360 0.096731 0.103663 0.110247 0.116376 0.122094
-0.014454 -0.014499 -0.014468 -0.014413 -0.014154 -0.013857 -0.013504 -0.013030 -0.012447 -0.011767 -0.010882 -0.009758 -0.008462 -0.006917 -0.004923 -0.002563 0.000082 0.002986 0.006297 0.009710 0.013581 0.017880 0.023089 0.030369 0.037623 0.044864 0.052096 0.059206 0.066233 0.072959 0.079566 0.086022 0.092258 0.098213 0.103955 0.109381
-0.013640 -0.013904 -0.014142 -0.014313 -0.014479 -0.014425 -0.014283 -0.014130 -0.013864 -0.013456 -0.012888 -0.012086 -0.010853 -0.009405 -0.007403 -0.004974 -0.002261 0.000734 0.003967 0.007558 0.011484 0.016145 0.021829 0.029658 0.037413 0.045034 0.052517 0.059827 0.066888 0.073751 0.080252 0.086469 0.092480 0.098257 0.103727 0.108914
-0.012370 -0.012686 -0.012893 -0.013162 -0.013334 -0.013490 -0.013417 -0.013271 -0.013080 -0.012756 -0.012201 -0.011479 -0.010335 -0.008914 -0.006950 -0.004620 -0.001984 0.000962 0.004150 0.007508 0.011386 0.015762 0.021329 0.028933 0.036433 0.043838 0.051098 0.058121 0.065025 0.071664 0.078155 0.084229 0.090068 0.095752 0.101149 0.106208
-0.009467 -0.010037 -0.010480 -0.010896 -0.011357 -0.011724 -0.012071 -0.012217 -0.012301 -0.012363 -0.012206 -0.011832 -0.011128 -0.010146 -0.008504 -0.006484 -0.004168 -0.001498 0.001494 0.004711 0.008348 0.012754 0.018208 0.025991 0.033798 0.041537 0.049199 0.056633 0.063885 0.070977 0.077827 0.084438 0.090690 0.096714 0.102532 0.107959
-0.003884 -0.004969 -0.006028 -0.007056 -0.008060 -0.009131 -0.010111 -0.011091 -0.011896 -0.012641 -0.013239 -0.013617 -0.013655 -0.013493 -0.012455 -0.010933 -0.009024 -0.006734 -0.004027 -0.000853 0.004952 0.009589 0.015692 0.024133 0.032664 0.041083 0.049208 0.057058 0.064590 0.071818 0.078846 0.085444 0.091812 0.097720 0.103333 0.108666
-0.008093 -0.008652 -0.009120 -0.009548 -0.009876 -0.010161 -0.010426 -0.010610 -0.010790 -0.010764 -0.010540 -0.010189 -0.009581 -0.008711 -0.007265 -0.005368 -0.003133 -0.000601 0.002230 0.005292 0.008742 0.012698 0.017604 0.024686 0.031738 0.038838 0.045877 0.052748 0.059469 0.065970 0.072316 0.078498 0.084491 0.090269 0.095686 0.100847
-0.003755 -0.004733 -0.005671 -0.006563 -0.007440 -0.008236 -0.008952 -0.009685 -0.010347 -0.011018 -0.011349 -0.011497 -0.011401 -0.011018 -0.009795 -0.008193 -0.006151 -0.003752 -0.001007 0.002102 0.005755 0.010112 0.015507 0.022920 0.030482 0.038018 0.045498 0.052799 0.059850 0.066663 0.073214 0.079417 0.085472 0.091221 0.096775 0.101862
-0.002691 -0.003609 -0.004538 -0.005440 -0.006289 -0.007116 -0.007852 -0.008540 -0.009270 -0.009918 -0.010453 -0.010690 -0.010721 -0.010619 -0.009732 -0.008319 -0.006572 -0.004444 -0.001968 0.000884 0.004249 0.008293 0.013382 0.020466 0.029642 0.036983 0.044196 0.051358 0.058370 0.065154 0.071765 0.078044 0.084113 0.089949 0.095475 0.100796
-0.009704 -0.009555 -0.009307 -0.009035 -0.008674 -0.008208 -0.007650 -0.007007 -0.006255 -0.005452 -0.004497 -0.003417 -0.002091 -0.000609 0.001121 0.003099 0.005321 0.007683 0.010228 0.012851 0.015621 0.018577 0.022018 0.026737 0.031448 0.036115 0.040812 0.045417 0.049992 0.054476 0.058875 0.063171 0.067381 0.071462 0.075472 0.079301
-0.009988 -0.009994 -0.009946 -0.009787 -0.009598 -0.009319 -0.008926 -0.008492 -0.007965 -0.007344 -0.006632 -0.005744 -0.004654 -0.003253 -0.001413 0.000661 0.002933 0.005427 0.007996 0.010686 0.013597 0.016826 0.020673 0.026022 0.031313 0.036540 0.041697 0.046759 0.051656 0.056443 0.061104 0.065580 0.069963 0.074223 0.078332 0.082284
-0.004820 -0.005435 -0.005910 -0.006408 -0.006815 -0.007197 -0.007505 -0.007736 -0.007911 -0.007999 -0.007936 -0.007766 -0.007333 -0.006758 -0.005429 -0.003812 -0.001894 0.000344 0.002855 0.005500 0.008583 0.012166 0.016528 0.022572 0.028615 0.034649 0.040639 0.046459 0.052268 0.057876 0.063408 0.068734 0.073904 0.078935 0.083781 0.088348
-0.004320 -0.004941 -0.005449 -0.005877 -0.006344 -0.006679 -0.006989 -0.007268 -0.007426 -0.007538 -0.007489 -0.007253 -0.006869 -0.006244 -0.005044 -0.003437 -0.001527 0.000630 0.003016 0.005650 0.008593 0.012040 0.016294 0.022171 0.028035 0.033844 0.039608 0.045220 0.050718 0.056136 0.061368 0.066451 0.071413 0.076179 0.080795 0.085121
-0.001705 -0.002617 -0.003449 -0.004218 -0.004936 -0.005666 -0.006246 -0.006843 -0.007347 -0.007746 -0.008054 -0.008120 -0.007923 -0.007580 -0.006493 -0.005098 -0.003247 -0.001067 0.001331 0.004007 0.007143 0.010728 0.015133 0.021146 0.027256 0.033305 0.039247 0.045026 0.050670 0.056118 0.061506 0.066613 0.071619 0.076469 0.081113 0.085492
0.000022 -0.000999 -0.001912 -0.002781 -0.003646 -0.004442 -0.005228 -0.005932 -0.006601 -0.007198 -0.007651 -0.007939 -0.007995 -0.007819 -0.007038 -0.005799 -0.004286 -0.002301 -0.000063 0.002475 0.005485 0.009085 0.013473 0.019525 0.025677 0.031912 0.037999 0.043898 0.049658 0.055248 0.060646 0.065865 0.070872 0.075752 0.080460 0.084865
-0.002329 -0.003003 -0.003560 -0.004056 -0.004505 -0.004885 -0.005157 -0.005457 -0.005636 -0.005818 -0.005834 -0.005673 -0.005380 -0.004858 -0.003793 -0.002441 -0.000749 0.001126 0.003287 0.005609 0.008194 0.011190 0.014974 0.020227 0.025540 0.030878 0.036243 0.041469 0.046589 0.051595 0.056496 0.061184 0.065840 0.070281 0.074636 0.078775
-0.004251 -0.004512 -0.004744 -0.004900 -0.004957 -0.004944 -0.004843 -0.004650 -0.004447 -0.004151 -0.003768 -0.003235 -0.002531 -0.001660 -0.000339 0.001246 0.003014 0.004973 0.007029 0.009211 0.011553 0.014140 0.017279 0.021701 0.026122 0.030552 0.034985 0.039390 0.043709 0.047911 0.052041 0.056047 0.059941 0.063789 0.067512 0.071125
0.001605 0.000493 -0.000550 -0.001587 -0.002583 -0.003488 -0.004248 -0.004927 -0.005474 -0.006029 -0.006421 -0.006677 -0.006718 -0.006515 -0.005631 -0.004305 -0.002683 -0.000851 0.001287 0.003613 0.006361 0.009552 0.013378 0.018690 0.024115 0.029581 0.035012 0.040327 0.045593 0.050696 0.055639 0.060367 0.064961 0.069409 0.073826 0.077923
-0.004229 -0.004268 -0.004250 -0.004193 -0.004095 -0.003907 -0.003623 -0.003256 -0.002800 -0.002278 -0.001699 -0.000952 -0.000105 0.000878 0.002162 0.003648 0.005369 0.007197 0.009106 0.011080 0.013135 0.015419 0.018078 0.021670 0.025248 0.028825 0.032402 0.035930 0.039419 0.042870 0.046236 0.049495 0.052669 0.055743 0.058730 0.061648
0.002891 0.001776 0.000728 -0.000295 -0.001305 -0.002331 -0.003203 -0.003964 -0.004657 -0.005255 -0.005683 -0.006039 -0.006211 -0.006229 -0.005577 -0.004489 -0.003120 -0.001415 0.000540 0.002655 0.005162 0.008057 0.011671 0.016728 0.021872 0.027056 0.032270 0.037400 0.042475 0.047478 0.052430 0.057125 0.061651 0.066062 0.070361 0.074379
-0.001857 -0.002165 -0.002429 -0.002666 -0.002834 -0.002948 -0.003020 -0.002967 -0.002828 -0.002649 -0.002345 -0.001892 -0.001377 -0.000667 0.000413 0.001756 0.003323 0.005000 0.006865 0.008782 0.010792 0.013064 0.015693 0.019468 0.023258 0.027075 0.030915 0.034715 0.038484 0.042179 0.045823 0.049408 0.052854 0.056181 0.059441 0.062558
0.005874 0.004501 0.003210 0.001930 0.000647 -0.000610 -0.001741 -0.002831 -0.003780 -0.004579 -0.005275 -0.005780 -0.006038 -0.006170 -0.005538 -0.004583 -0.003342 -0.001800 -0.000004 0.002147 0.004617 0.007512 0.011056 0.015929 0.020856 0.025859 0.030854 0.035746 0.040587 0.045338 0.050016 0.054515 0.058965 0.063262 0.067415 0.071291
0.003119 0.002308 0.001536 0.000796 0.000074 -0.000621 -0.001260 -0.001832 -0.002406 -0.002874 -0.003158 -0.003305 -0.003316 -0.003141 -0.002461 -0.001375 -0.000092 0.001404 0.003107 0.004915 0.006997 0.009416 0.012302 0.016482 0.020712 0.024959 0.029251 0.033518 0.037761 0.041976 0.046149 0.050229 0.054224 0.058179 0.061989 0.065569
0.007226 0.005854 0.004554 0.003266 0.001991 0.000732 -0.000428 -0.001543 -0.002591 -0.003574 -0.004402 -0.004993 -0.005372 -0.005524 -0.004940 -0.004065 -0.002878 -0.001458 0.000225 0.002149 0.004373 0.007100 0.010414 0.014963 0.019584 0.024295 0.028973 0.033583 0.038171 0.042689 0.047160 0.051494 0.055769 0.059989 0.064129 0.067973
0.004269 0.003436 0.002705 0.001989 0.001287 0.000616 -0.000022 -0.000596 -0.001164 -0.001658 -0.002052 -0.002269 -0.002327 -0.002199 -0.001518 -0.000498 0.000706 0.002133 0.003703 0.005400 0.007279 0.009447 0.012192 0.016081 0.019984 0.023951 0.027974 0.031908 0.035846 0.039761 0.043638 0.047455 0.051203 0.054902 0.058504 0.061977
0.007872 0.006601 0.005379 0.004226 0.003086 0.001911 0.000810 -0.000272 -0.001313 -0.002274 -0.003102 -0.003853 -0.004413 -0.004728 -0.004370 -0.003588 -0.002496 -0.001252 0.000289 0.001998 0.004029 0.006497 0.009559 0.013942 0.018357 0.022862 0.027413 0.031913 0.036351 0.040765 0.045158 0.049435 0.053690 0.057878 0.061963 0.065834
0.004382 0.003691 0.003041 0.002396 0.001850 0.001326 0.000832 0.000414 0.000012 -0.000327 -0.000539 -0.000649 -0.000700 -0.000549 0.000174 0.001118 0.002311 0.003660 0.005122 0.006709 0.008376 0.010316 0.012708 0.016140 0.019619 0.023135 0.026693 0.030227 0.033768 0.037215 0.040635 0.044015 0.047320 0.050592 0.053778 0.056830
0.011828 0.010198 0.008641 0.007111 0.005557 0.004064 0.002630 0.001207 -0.000155 -0.001466 -0.002700 -0.003793 -0.004682 -0.005389 -0.005239 -0.004637 -0.003800 -0.002683 -0.001273 0.000319 0.002344 0.004767 0.007885 0.012252 0.016738 0.021381 0.026033 0.030634 0.035205 0.039753 0.044185 0.048506 0.052793 0.057004 0.061134 0.065042
0.003132 0.002673 0.002302 0.001955 0.001647 0.001371 0.001180 0.001010 0.000861 0.000780 0.000779 0.000879 0.001110 0.001495 0.002306 0.003334 0.004548 0.005802 0.007136 0.008541 0.010033 0.011775 0.013896 0.016934 0.019942 0.022943 0.025983 0.028926 0.031834 0.034681 0.037495 0.040208 0.042895 0.045561 0.048154 0.050637
