-0.007195 -0.124972 0.137137 0.073421 0.052523 -0.118920 -0.171827 -0.007126 0.078878 0.008280 0.095740 0.114363 -0.052318 -0.113882 -0.085247 0.114193 -0.045828 0.187766 0.200213 0.143744 -0.031595 0.053862 0.211298 0.093014 -0.007665 -0.056120 -0.011972 0.133595 -0.140355 0.043635 0.001360 0.160003 0.087396 -0.033732 0.135495 0.087641
0.001269 -0.075908 0.078873 0.120549 0.010308 0.044603 0.100047 -0.071101 0.205704 0.177330 0.085151 0.009316 -0.063271 0.209344 0.046070 0.240582 0.245033 0.202601 0.153062 -0.014525 0.034192 -0.026907 0.246883 0.240482 0.090059 0.087546 0.157832 0.086786 0.086328 -0.070679 0.023544 0.169980 0.190127 0.181457 -0.073355 -0.063830
-0.135453 -0.071403 -0.022117 0.140107 -0.050494 -0.126453 -0.077033 0.011733 -0.152254 0.026578 -0.160763 -0.167421 -0.024781 -0.030377 -0.000139 0.072459 -0.135909 0.045112 -0.079976 0.092297 0.154308 0.112713 0.089550 0.199467 0.193787 0.220067 -0.015566 0.056955 -0.020670 0.025817 -0.073740 0.099192 0.015108 -0.001281 0.001343 -0.048244
-0.065048 0.151359 0.022403 -0.068246 0.084865 -0.143232 -0.112432 -0.056668 0.019758 -0.053196 0.017395 -0.020315 -0.045112 0.003925 0.207776 0.183250 -0.066855 0.195221 0.199012 0.041893 0.241836 0.023370 0.054903 0.197425 0.210884 -0.003018 0.193561 0.225636 0.041136 0.026882 -0.141681 -0.109598 0.103076 -0.116015 -0.006721 0.001622
-0.176874 0.068763 -0.067968 -0.141984 0.053080 0.014661 -0.115596 -0.091919 0.082660 0.087378 -0.029653 -0.080570 -0.047577 -0.169111 0.138581 -0.139144 0.057720 -0.015248 -0.140500 -0.138581 -0.124020 0.088845 -0.151706 0.052338 -0.080381 -0.015123 -0.027429 -0.012383 -0.078215 -0.076967 -0.145234 -0.107346 -0.081992 -0.014194 -0.007756 -0.183175
0.103015 0.062078 -0.120631 0.140227 0.062486 -0.133110 0.081035 0.025045 -0.082338 0.046954 -0.141198 0.062858 -0.061447 0.001520 -0.025261 -0.071397 -0.130902 0.129975 0.120791 -0.207230 0.012311 0.025399 0.060263 0.126104 -0.097727 -0.032825 -0.063211 0.058018 0.002112 -0.006393 -0.147785 0.139738 -0.031999 0.118052 0.068654 0.101355
-0.036645 -0.109913 0.013781 -0.080987 -0.031200 0.056047 0.146774 -0.054161 -0.025125 0.033902 -0.100106 -0.034862 -0.001254 -0.071858 0.085140 -0.143168 -0.165413 0.052596 -0.164877 -0.124531 -0.171335 -0.010674 -0.027694 0.094280 -0.039617 0.079646 -0.096604 0.085549 -0.024614 -0.048101 -0.092709 0.112013 0.078045 0.056239 -0.114166 -0.223062
-0.082079 -0.103260 -0.015435 0.041580 0.100300 0.024265 -0.003484 -0.174184 -0.182555 0.014777 -0.080414 -0.135606 0.051098 0.121741 0.096778 0.113237 0.059804 -0.017394 -0.048467 -0.012337 -0.166006 0.069240 -0.134604 -0.046450 -0.033936 -0.115144 0.001882 0.109988 0.065392 -0.053291 -0.074807 0.021243 -0.006590 0.090707 -0.099597 -0.092634
0.077072 -0.006513 -0.088806 -0.070860 -0.138612 -0.121245 -0.179387 0.048811 -0.152396 -0.006913 -0.116978 0.132762 0.162219 0.161851 0.018324 0.013692 0.068960 -0.066811 -0.066934 -0.064478 -0.026051 -0.059986 -0.055335 -0.106809 0.131356 -0.097167 -0.023270 0.152721 -0.078491 0.113636 0.025380 -0.068704 0.083315 -0.012814 0.151301 -0.157100
-0.053756 -0.086702 0.077003 0.070153 0.088902 0.169456 -0.086951 0.046460 0.034378 0.069237 -0.009423 0.065185 0.130553 0.212425 0.115584 0.010504 0.116773 0.146486 0.087371 0.188781 0.182899 -0.085407 -0.029271 -0.043341 -0.076082 0.227835 0.155698 -0.066651 0.109371 -0.107450 -0.064353 -0.082647 -0.042782 -0.047330 0.167920 -0.118553
0.066227 0.021762 -0.163645 -0.190943 0.096299 0.000894 -0.158639 -0.179208 0.092122 0.066006 0.096654 -0.189549 -0.072935 0.009627 0.079876 -0.190825 -0.190959 0.090588 0.077611 -0.206094 0.038931 -0.009780 -0.146204 0.102858 -0.171725 0.046320 -0.195666 -0.128724 -0.149361 0.135804 -0.021760 -0.078206 0.046905 0.023865 0.108477 -0.228854
0.024732 -0.126008 -0.113689 -0.046604 0.025856 -0.142616 0.110311 0.105317 0.042492 0.031090 0.051763 -0.089501 0.144319 -0.181281 -0.058906 0.107573 0.022136 0.013547 -0.188566 -0.202850 -0.156013 -0.105964 0.069079 -0.114451 0.136369 -0.067111 -0.032055 0.081863 0.139383 0.056693 -0.065432 -0.149377 0.147740 -0.015246 -0.151644 -0.051717
0.068476 -0.144344 -0.145812 0.080422 -0.003790 -0.180304 -0.127576 -0.010260 -0.091633 0.111697 -0.002835 -0.046454 -0.029673 -0.123720 -0.008611 0.006009 0.044194 -0.108143 0.043591 -0.206542 0.032833 0.115081 -0.060016 0.109769 -0.151130 -0.002319 -0.055862 0.013341 -0.001999 0.146094 -0.052176 0.070740 0.020071 -0.125703 0.096906 -0.041746
-0.028926 -0.078952 -0.026653 0.099322 0.143981 0.085306 -0.026397 0.164572 -0.023721 0.155466 0.028422 0.073188 0.095710 0.130744 0.104084 -0.028447 0.140391 -0.066943 -0.069470 0.070287 0.104231 0.113990 -0.071758 -0.081090 0.188844 0.020196 0.267432 -0.009021 0.219972 0.123134 0.135073 -0.099588 0.004517 -0.041005 -0.148525 -0.251572
0.032941 -0.031674 0.091353 -0.061083 -0.206190 0.083773 -0.021694 -0.024231 -0.159519 -0.163982 -0.076083 -0.122981 0.052508 0.016420 -0.151961 0.130325 -0.065521 -0.030003 0.055471 -0.145716 0.088822 0.034034 -0.225959 0.076390 0.124476 0.081273 -0.089476 0.161066 0.135427 -0.126151 0.038764 -0.050588 0.029567 0.036181 -0.086485 0.024862
-0.101508 -0.002174 -0.000336 -0.033816 -0.108740 0.134425 0.129627 -0.153761 -0.138089 -0.032640 -0.194390 -0.071038 0.105526 -0.129604 0.097708 0.070836 -0.033775 -0.004922 -0.035784 -0.079486 0.092823 0.066476 0.001076 -0.122264 -0.011579 -0.076203 -0.122790 0.130720 -0.004596 -0.103584 0.049500 0.153834 -0.040468 -0.054172 -0.083775 0.090154
-0.105622 0.055334 -0.017266 -0.051268 -0.117263 -0.076998 0.023814 0.083643 -0.105073 0.174988 0.011695 -0.002410 -0.122386 0.008251 -0.121698 -0.008095 0.018884 0.023399 -0.114122 0.062073 0.031094 -0.106709 0.052628 -0.003011 -0.059722 -0.015944 0.057959 0.156575 0.014494 -0.121312 -0.059394 0.065990 -0.148441 -0.090228 -0.010989 -0.037378
-0.026921 0.127248 -0.182928 -0.139253 -0.154558 -0.180412 -0.092866 -0.128310 -0.098865 -0.170083 0.077728 0.118735 0.057410 0.028105 0.051615 0.050908 -0.036866 0.114069 -0.062599 0.129496 0.002997 -0.169646 -0.011357 -0.103911 0.068252 -0.129762 0.129975 0.132506 -0.054259 0.150885 0.141594 0.075278 -0.023578 -0.115473 -0.057181 -0.079287
0.093088 -0.051771 0.009431 0.031330 0.113889 0.107608 -0.015027 -0.161843 -0.042993 0.008798 -0.000771 -0.181892 -0.191816 0.025638 -0.029480 0.016751 0.096971 0.030008 0.031469 0.010140 -0.084953 -0.078839 -0.037420 0.081809 -0.055628 -0.130743 0.114048 -0.027441 0.049443 0.018311 -0.088954 -0.159389 -0.058053 -0.034076 -0.028456 -0.053572
0.150384 0.091320 -0.033274 0.089054 0.109656 0.061479 0.098607 0.057635 -0.183984 -0.176686 -0.085484 0.032370 -0.045935 -0.121694 0.081020 -0.082186 -0.080120 0.129864 0.072000 -0.152348 0.121809 -0.181121 -0.097097 0.158053 0.163163 0.104731 -0.046830 0.088093 -0.108339 0.000338 0.191652 0.002941 0.088984 -0.159435 -0.164985 -0.200111
-0.097483 -0.043481 0.162638 -0.115260 -0.130816 -0.134812 -0.155120 0.101607 -0.100613 -0.035166 -0.001673 0.054448 -0.076276 -0.043343 0.039341 -0.145027 0.047329 0.088015 0.095997 -0.079632 -0.040396 0.015800 0.015662 0.101175 0.205009 0.060472 0.184391 0.016834 0.230276 0.194129 -0.047064 -0.020555 0.112519 -0.153773 -0.070389 0.063892
-0.062567 -0.159646 -0.100380 -0.151124 -0.185834 -0.098851 0.015066 -0.022101 -0.041020 -0.167767 -0.008447 0.112606 0.070817 -0.037551 0.103899 -0.128873 0.111770 0.103313 -0.011846 0.101877 0.159478 -0.087594 -0.102928 -0.171203 0.109302 0.175761 -0.094322 -0.083900 -0.077482 0.108895 0.063419 0.149630 -0.034561 0.010332 0.078229 -0.196163
0.017089 -0.017814 -0.082762 -0.010491 -0.061864 -0.127311 0.186018 0.074509 0.139616 -0.097744 0.092976 0.147039 0.062260 0.111854 0.131830 0.095007 -0.006050 0.058507 0.198519 0.014854 -0.051516 0.240114 0.183475 -0.053827 0.044973 0.230614 0.203873 0.065946 -0.044302 -0.003646 -0.124541 -0.049805 0.109469 -0.163222 0.105777 -0.073418
0.144236 -0.015497 0.108094 -0.172668 -0.156446 -0.166910 -0.088338 0.014933 0.089018 -0.071658 0.096749 -0.119731 0.199124 0.200366 -0.014861 0.163576 0.066360 0.134969 0.149030 -0.090596 -0.090475 0.078781 -0.041538 0.024586 0.088374 0.111118 0.019321 0.171935 0.137019 -0.088707 0.139592 0.109930 0.044004 -0.130596 0.138132 -0.015402
0.064186 -0.046817 -0.077666 0.112301 -0.155443 -0.065031 -0.108453 0.077747 0.050536 -0.097638 0.017095 -0.032097 -0.116742 0.052991 0.022627 0.032321 -0.017858 0.098159 -0.023853 -0.140433 0.128084 0.028320 0.099961 -0.019196 -0.040757 -0.067173 0.121064 0.083039 0.121940 0.138228 -0.197533 0.000476 0.010702 0.076559 0.161976 0.112737
-0.060008 -0.079656 -0.072032 0.091395 0.026406 -0.025566 0.039917 0.149508 -0.098145 0.027266 -0.060525 0.137778 0.040034 0.070300 -0.083156 0.112237 0.070167 -0.079958 -0.114686 -0.033088 -0.079249 -0.023783 -0.028724 -0.107574 -0.097643 -0.036560 0.004019 0.171924 -0.002851 0.054129 0.144758 -0.010742 0.188127 0.104561 0.128609 -0.126578
-0.129263 -0.126998 -0.179164 -0.060144 -0.046079 0.122867 0.051630 -0.173282 0.090181 -0.160786 -0.007806 0.056655 -0.060829 -0.069623 0.120904 0.064608 -0.125630 0.001598 0.061214 0.006193 -0.033663 -0.138735 -0.029599 0.136809 -0.139042 0.103168 -0.141971 0.009898 -0.030959 -0.113280 0.037752 -0.183476 0.055984 0.016207 -0.198936 -0.094737
-0.025205 -0.014112 -0.008617 -0.091164 -0.099188 0.017003 -0.166717 0.022903 0.103697 0.101351 0.064974 -0.051603 0.038429 -0.050485 0.107403 -0.116590 -0.077622 0.124769 -0.091255 0.203356 0.165544 0.207825 0.167352 -0.103532 0.138330 0.177610 0.177691 0.009598 -0.035636 -0.073290 -0.078799 0.056360 0.140858 -0.030011 -0.030376 -0.135713
-0.118520 0.099287 -0.043453 -0.075413 0.088769 0.148868 0.113921 0.063908 -0.148713 -0.024645 -0.051748 0.017571 0.133489 0.044979 -0.124295 -0.043161 -0.045907 0.036951 0.149294 0.019896 0.222316 0.134499 0.200069 0.248250 0.034378 0.243553 0.202566 -0.103607 0.179108 0.112332 0.149433 -0.093382 -0.149777 -0.040693 -0.119265 0.031210
-0.070697 0.148756 -0.057490 0.087355 -0.129740 -0.180056 0.085138 -0.063256 0.082582 -0.053305 -0.006553 -0.035192 0.138876 0.064048 0.068347 -0.093971 0.053555 0.131279 -0.137175 -0.097045 -0.103346 -0.102408 -0.029621 0.158871 -0.025591 0.085983 0.176555 -0.080609 0.042857 -0.159081 0.067718 -0.132470 0.106409 0.029888 0.135513 -0.232239
-0.183784 -0.166160 0.011983 -0.152585 -0.067411 -0.022849 -0.191097 0.029912 -0.176595 -0.181921 -0.167328 -0.166561 0.025398 -0.215990 -0.176599 -0.160572 0.028714 -0.213404 0.064519 -0.078871 0.045437 -0.061038 -0.080237 0.110691 -0.095802 -0.120156 0.032058 -0.047492 -0.026894 -0.139081 -0.001917 -0.068484 -0.046790 0.100049 0.002778 -0.104005
0.005609 0.132179 0.092330 0.083598 -0.013359 -0.013373 -0.090128 -0.101969 -0.143616 0.027881 -0.028715 0.155799 -0.132255 0.091680 0.003589 -0.066196 0.152090 -0.130399 0.043176 -0.155214 -0.095447 0.150048 0.106183 0.055326 0.161388 0.075278 0.151877 0.234967 0.139364 0.192242 -0.128665 0.012931 0.134246 -0.031345 0.074337 0.037479
-0.136759 0.165562 0.092403 -0.042147 0.095452 0.109426 0.101366 -0.168542 0.034636 0.153678 -0.065964 0.039724 0.138900 -0.092627 0.167160 0.055858 -0.117456 -0.116673 -0.054184 0.010404 0.112472 -0.027118 -0.059887 -0.119041 0.035472 -0.147499 -0.031108 -0.027860 -0.036622 0.093394 0.181710 0.086383 -0.048378 0.057735 -0.103382 0.128787
-0.130626 -0.120107 0.096295 -0.165249 0.135921 -0.079156 -0.124257 -0.002137 0.103651 0.034439 0.144915 0.141463 0.121575 -0.038727 -0.092228 0.043058 0.168912 -0.075463 -0.011358 0.168649 0.179612 -0.019950 0.075361 0.022362 -0.075274 0.078513 0.112319 0.170780 0.198015 0.091742 -0.017839 -0.088042 0.004480 0.128739 0.093681 -0.225449
-0.016582 -0.091413 0.045213 -0.082688 0.027005 0.026976 0.143180 -0.123782 0.048567 -0.090880 0.099604 -0.042265 0.033385 -0.198047 0.015204 0.065093 0.077101 -0.070705 -0.067442 -0.049500 0.100087 -0.112529 0.134869 -0.145150 -0.081158 -0.154188 -0.084394 0.037114 0.004196 -0.043141 -0.171125 -0.109794 -0.062500 -0.138616 -0.143447 0.092635
0.101926 -0.100459 -0.060932 0.065921 0.068078 0.128473 -0.128208 -0.007477 -0.071465 -0.060549 0.070615 -0.010090 0.029333 0.080784 -0.120027 0.092230 0.122578 -0.060643 0.149854 0.191877 -0.109682 0.002666 0.082982 0.037322 -0.055107 0.175519 0.154764 -0.018306 -0.067656 -0.116054 -0.082607 -0.172179 -0.151555 -0.055421 -0.009982 -0.099201
0.139472 -0.048384 0.126352 0.105074 0.129745 -0.116134 0.154422 0.016651 -0.075256 0.013013 0.064682 -0.080409 0.137420 -0.115904 -0.109713 -0.227289 -0.004151 -0.064682 0.042766 0.074330 -0.022488 -0.143522 -0.049470 -0.134988 0.150036 0.146374 -0.072679 0.014706 0.195839 0.084194 0.117116 0.052660 -0.010002 -0.054157 0.194420 -0.048424
-0.063170 0.123106 -0.162613 0.026141 0.133534 -0.157895 -0.182319 -0.033706 0.074851 0.133865 -0.171906 -0.099015 -0.026921 -0.076531 -0.160966 0.084210 -0.024936 -0.008437 -0.112570 -0.125957 -0.049406 -0.119818 0.054143 -0.109030 -0.141573 0.076408 -0.154637 0.173939 0.129590 0.130217 -0.018070 0.100680 -0.099166 -0.065302 -0.173770 -0.219314
-0.013704 -0.039410 0.077641 -0.016423 -0.134046 -0.130377 -0.081972 -0.018123 0.109049 -0.010699 0.142026 -0.025760 -0.082777 0.157343 0.094751 -0.028937 0.025525 0.102152 -0.139534 0.033186 0.142780 0.170251 0.090271 -0.010854 0.034871 -0.056837 0.140857 -0.000141 0.139717 -0.085653 -0.059197 0.169497 0.000758 0.035101 0.065747 0.020403
-0.046727 0.122744 0.122395 0.049145 0.093863 -0.087164 0.136257 0.021747 -0.008236 -0.098674 -0.061397 0.175034 0.174247 0.165175 0.175862 0.175142 -0.021426 0.068026 0.068354 0.086363 -0.044996 0.091069 -0.120338 0.167315 -0.070348 0.041620 -0.067431 -0.066383 -0.060574 -0.050041 0.192011 0.017187 0.032053 -0.153642 0.129349 -0.178348
-0.085132 -0.058473 0.027762 0.035179 -0.100199 -0.022044 0.104847 -0.149873 0.015282 0.041864 0.011811 0.095064 -0.122971 -0.080924 0.007546 -0.022891 -0.150077 -0.000329 0.063635 -0.016022 0.041997 0.075118 0.081503 0.055831 -0.133644 0.099445 0.085575 0.101688 -0.080531 0.117829 -0.028411 0.073502 0.081128 -0.142535 0.116256 0.023570
-0.063823 0.092121 0.136214 0.132531 0.081506 0.046557 -0.063791 -0.056130 -0.104918 0.088834 0.191518 0.057989 0.061467 0.204801 0.011553 0.011404 0.096079 0.140652 0.148141 0.060442 0.011929 0.160702 0.161691 0.028465 0.134356 0.226575 0.118590 0.037016 0.123296 0.016946 -0.020452 0.013769 -0.010325 -0.058010 -0.009485 -0.172425
0.069219 0.048484 0.165189 0.085319 0.170114 0.022618 -0.112277 0.158795 0.172906 0.194424 0.107202 0.202464 0.049911 -0.114845 -0.046097 0.133408 -0.066423 0.144911 0.218747 -0.074685 -0.078134 0.175553 0.087378 0.109794 0.204670 0.072323 0.009018 -0.053734 0.162800 0.193572 -0.007462 -0.041555 0.188203 0.147053 0.224323 -0.062328
0.043780 -0.179152 0.116167 -0.191282 -0.021580 0.002841 -0.133571 0.116342 -0.184746 -0.069697 -0.125549 0.097514 -0.188037 -0.158046 0.029207 -0.087399 0.015482 0.092853 -0.009096 -0.181120 -0.221798 -0.110449 -0.175935 -0.002305 0.006381 0.137121 0.101510 0.047539 -0.085659 -0.001185 -0.066700 -0.049261 0.096403 -0.101188 0.056382 -0.165767
-0.029728 0.210831 0.022897 0.094783 0.139734 0.032387 0.120598 0.190687 0.062971 -0.052603 -0.003586 0.002959 0.037294 0.224703 0.057491 0.121079 0.074145 0.026267 0.058405 0.223840 0.272282 0.221164 0.091876 0.063704 -0.000955 0.065383 0.166092 0.247137 0.204684 0.040075 -0.096412 0.128451 0.186956 0.065705 0.245428 0.218184
-0.051844 -0.029663 0.001110 0.111170 -0.168751 -0.131088 -0.057545 0.100013 0.062638 -0.045336 -0.003651 0.108079 0.095242 -0.143212 -0.057367 -0.063337 -0.033807 -0.164739 -0.108388 -0.217950 0.053227 -0.082668 -0.178435 -0.039213 -0.144792 -0.170869 0.126010 -0.090337 0.001704 0.182072 0.094775 -0.016342 0.047346 -0.084533 0.107795 -0.207489
0.111503 0.047649 -0.044475 0.188682 0.073484 -0.058167 0.090880 0.137211 0.086521 0.090724 0.198629 -0.012614 0.192919 0.181037 0.098861 0.220068 -0.007116 -0.014367 0.112522 0.073466 0.219333 0.117666 0.094480 0.023129 0.229473 -0.081627 0.193677 0.192296 0.122444 0.139329 0.233532 0.192630 0.165155 -0.046092 0.126908 0.026051
-0.097090 0.144910 0.089128 0.100523 0.130213 0.045431 0.040988 -0.107416 -0.160582 0.117451 -0.150461 -0.030703 -0.143195 0.010978 0.071373 -0.087409 -0.189525 -0.158159 0.008283 -0.077640 -0.153199 -0.033691 0.075924 -0.046768 -0.029125 0.038652 0.082624 0.094198 0.055210 0.100192 0.077260 0.009903 -0.097085 -0.134580 0.031591 0.117546
-0.022334 -0.080808 0.112781 0.081658 0.160921 0.146734 -0.058409 0.096653 -0.112502 -0.001594 -0.005521 0.112367 0.097346 -0.123041 -0.046337 -0.125208 -0.149028 -0.146882 -0.183797 -0.082387 -0.059680 0.020216 -0.132475 0.024854 -0.053301 0.101800 -0.125183 0.111267 0.044861 0.151674 0.082119 0.105917 -0.132502 0.036414 -0.137859 0.048127
-0.126285 -0.125653 0.064719 -0.146731 0.020961 -0.130037 -0.169391 0.069456 -0.180486 -0.152220 -0.058488 0.082711 0.121426 -0.022707 0.051109 0.016649 -0.094612 -0.030111 -0.134140 0.084420 -0.095014 0.114159 0.127378 0.044782 -0.076475 0.038650 0.062886 -0.125760 0.106541 -0.068904 0.063054 0.045265 -0.094086 0.015169 0.005255 -0.048655
-0.139544 -0.135115 0.063576 -0.070128 0.003975 0.161920 -0.093756 0.015459 0.016215 -0.147633 -0.015430 -0.078170 -0.122416 -0.063876 -0.200230 -0.196081 -0.119723 0.070537 0.064681 0.058999 0.155611 0.113884 -0.001523 -0.111113 -0.058086 0.188352 0.160974 0.038726 0.020784 -0.071475 0.099020 -0.166845 -0.157041 -0.133712 0.084018 -0.102134
-0.065751 0.114261 -0.066471 0.125877 0.014671 0.054579 -0.059775 -0.083698 -0.151465 -0.141818 0.111548 -0.027090 -0.014307 -0.064740 -0.104150 -0.013152 0.019140 -0.125217 0.089894 0.026299 0.067146 0.006480 -0.128932 0.028573 -0.022812 -0.011493 0.129643 0.114111 0.159477 -0.064383 -0.007651 -0.101911 -0.108451 0.068471 -0.142503 0.016321
-0.043613 -0.061700 -0.122720 -0.093927 -0.083888 -0.114781 -0.131661 0.113123 -0.181301 -0.069739 -0.033681 0.002969 0.156477 0.025340 0.069113 -0.018832 0.127328 0.096320 0.087148 0.017640 0.098587 0.146649 0.113436 0.008095 0.101183 0.101267 -0.119745 -0.019598 -0.170068 -0.067409 -0.091054 -0.094518 0.172510 0.105546 0.199707 0.127002
-0.029908 -0.037310 0.110973 -0.001092 0.043815 0.020778 -0.004200 0.010599 -0.136353 0.078858 0.047733 0.062340 -0.019532 0.101772 -0.016735 0.032563 -0.185670 0.014036 -0.213287 0.096011 0.048956 0.041135 -0.032222 0.120240 0.054634 -0.142543 -0.011078 0.029770 0.025575 -0.088535 0.019859 -0.069427 0.117212 -0.060856 0.012897 0.056189
-0.104814 0.156532 0.077916 0.171215 0.078088 0.104236 -0.096929 0.149178 0.081831 -0.098456 0.000426 0.077361 -0.072613 -0.033940 0.055550 -0.025835 0.097053 -0.132549 0.153460 0.017538 0.125793 0.153456 0.097729 -0.110860 0.005008 0.002506 -0.011499 0.032844 -0.162204 0.089849 -0.140541 0.135011 0.111050 -0.109110 -0.134964 0.073485
0.028756 -0.204341 -0.164476 -0.102154 -0.208932 0.069913 0.071878 -0.086835 -0.107109 -0.200806 0.001707 0.042216 0.076171 -0.008701 -0.007124 0.066312 -0.126162 -0.011279 -0.120033 -0.259896 -0.047440 0.011734 -0.068594 -0.114037 -0.144216 0.076168 -0.105494 -0.125813 -0.033827 0.162572 -0.132277 0.008505 -0.106007 -0.041014 -0.096913 -0.036863
0.057567 0.107498 0.108290 -0.089406 -0.086887 0.056125 -0.067614 -0.075566 0.136515 0.161172 -0.032488 0.098280 -0.062385 0.199574 -0.100525 -0.047581 -0.061002 -0.058014 -0.004631 0.205152 0.057815 0.165529 0.060579 -0.168517 -0.160533 0.081058 0.103586 -0.114029 0.104934 0.065755 0.162719 0.028398 -0.070757 -0.060550 0.083622 -0.124804
-0.103451 0.087063 0.054172 0.001339 -0.126414 0.079683 0.056110 -0.039723 -0.026349 0.042532 -0.006772 -0.004941 0.003210 -0.077458 0.098847 -0.066860 0.196609 0.175825 0.016372 0.139462 0.151651 0.112979 0.195786 0.133225 0.129355 0.139035 0.156690 0.235197 -0.000143 0.224678 0.012553 -0.027029 0.091649 0.040597 -0.086312 -0.071195
0.035071 -0.105123 0.153718 0.010934 0.068580 -0.117143 0.192145 0.016304 -0.055923 -0.060600 -0.010599 -0.138864 0.098321 -0.056510 -0.094247 -0.021382 0.021145 0.100003 -0.012082 -0.025065 0.122552 0.079822 -0.010698 0.091251 -0.068323 -0.009579 0.059122 0.111878 -0.029844 0.039062 -0.024152 0.042511 0.199456 0.169185 -0.125444 0.145716
-0.128353 -0.087586 -0.114948 -0.200992 -0.004961 0.035205 0.038157 -0.138433 0.029026 -0.188439 -0.086559 0.100802 -0.154213 -0.129034 0.035633 -0.061500 -0.168386 -0.073765 0.042213 -0.058953 0.021652 -0.058612 -0.114227 0.090708 -0.171780 0.066467 -0.026820 0.152931 -0.101637 0.015968 -0.032328 0.173437 -0.121623 -0.019784 0.111622 -0.075477
-0.031410 0.031985 -0.090074 0.068948 0.059870 -0.098848 -0.097880 -0.119202 0.170405 -0.071822 0.039357 -0.116276 -0.000184 -0.116049 0.183090 0.023796 -0.046627 0.161256 -0.115798 0.119931 0.110907 0.146809 0.209594 -0.028084 -0.051989 0.006918 0.110310 -0.039802 0.039548 0.189643 0.021380 0.019280 0.034459 -0.061693 0.143242 -0.013008
-0.042017 -0.112859 0.030652 -0.158136 -0.152143 -0.007162 -0.022449 -0.060788 -0.004774 -0.013767 0.038627 0.158328 -0.000968 0.162315 -0.029734 0.156058 0.105457 0.100534 0.140779 -0.070425 0.097489 0.073102 0.084518 -0.087485 0.110749 0.087163 0.048564 0.030638 -0.062741 0.014498 -0.103116 -0.092293 0.070116 0.159396 -0.083057 0.067986
-0.153853 0.011059 0.000766 -0.091105 0.035554 -0.050307 -0.195563 -0.025088 -0.013066 -0.009666 -0.069122 0.033035 0.094692 0.064926 -0.033877 -0.152432 0.055463 -0.200716 -0.093021 -0.150198 -0.247831 -0.031068 0.054595 -0.102227 -0.137754 0.040141 -0.017111 -0.111466 -0.015525 -0.157516 -0.108310 0.079578 0.089697 -0.131186 -0.098336 -0.054233
-0.006861 -0.097024 -0.055958 -0.070723 -0.238318 -0.113379 -0.138765 0.033568 -0.070715 -0.148847 -0.004429 -0.097046 -0.192069 0.062857 0.021167 0.079837 0.047157 -0.077944 0.031835 -0.134814 -0.027268 0.090762 -0.053305 -0.094707 -0.109043 -0.029756 0.062965 0.099590 -0.115957 0.104637 0.169224 0.046754 -0.109932 0.096758 0.049587 -0.223788
0.087488 -0.034192 0.187002 -0.002756 0.154195 -0.018885 -0.053263 0.087386 -0.035539 0.127902 -0.054271 0.206106 0.117693 0.254713 0.274678 -0.036899 0.075173 0.120280 0.329570 0.054354 0.030764 0.165583 -0.012877 -0.042181 -0.062862 0.002776 0.213798 0.175432 0.181017 0.166030 0.241737 -0.046337 0.268259 0.069547 -0.017006 0.160770
-0.189423 0.017165 -0.180676 0.087700 -0.230343 0.034493 -0.081618 -0.185781 0.093505 -0.046794 -0.039312 -0.195667 -0.121618 -0.152021 0.098560 0.118914 -0.110657 -0.184018 -0.038122 0.039118 0.026794 0.016082 -0.035538 -0.032154 0.078088 0.074588 0.134709 -0.053430 -0.068413 0.027741 -0.045644 -0.010938 0.007708 -0.120219 -0.145908 -0.076555
-0.148179 -0.094126 0.028538 -0.107792 0.107533 0.107202 -0.005878 -0.123832 -0.166578 -0.152895 -0.049326 -0.046130 0.005332 0.146084 -0.067756 -0.063740 0.151064 -0.026299 0.021750 -0.032562 -0.121913 -0.049739 0.006994 -0.153141 -0.110608 -0.038551 0.094436 -0.021471 -0.177584 0.038367 -0.018555 0.088084 0.034706 0.032743 -0.042559 -0.166365
0.097834 0.040423 0.114808 0.139666 0.103492 0.001602 -0.041998 -0.054614 -0.095845 0.186641 -0.006366 0.120480 0.036700 -0.033446 0.113190 -0.047102 0.154767 0.186591 0.087824 0.134700 -0.063796 0.105405 0.059593 -0.007752 -0.017601 0.146332 0.225484 0.162073 0.229005 0.006362 0.146258 -0.087239 -0.024077 -0.045399 -0.025214 0.104353
-0.075207 0.140523 0.168453 0.148210 -0.068998 0.047430 -0.041660 -0.110313 0.136415 -0.087667 0.161556 -0.051165 0.020607 -0.008701 -0.053868 0.017887 0.122427 0.070889 0.122808 0.040772 0.111362 0.139941 0.085220 0.124620 -0.049337 0.083750 -0.119817 0.013988 -0.121131 -0.074495 0.006360 0.038319 0.106468 -0.131387 0.135472 0.010492
0.107872 0.015259 0.070183 0.111801 -0.030091 -0.197333 -0.072783 -0.175194 0.015209 -0.172635 0.014373 0.004196 0.048569 -0.205009 -0.129822 -0.187294 -0.070762 0.015318 0.033933 0.078192 -0.000712 0.068455 0.067060 -0.027722 -0.082075 -0.124437 0.087414 -0.075291 0.110204 0.127017 0.122127 -0.086186 0.086886 -0.098290 -0.110568 -0.158924
0.084266 0.144817 0.114041 0.137391 -0.157567 0.009123 -0.004938 0.057494 -0.053281 0.074201 -0.090291 -0.017499 -0.015409 -0.099530 -0.039823 0.026622 -0.019668 0.127885 -0.076662 0.130559 0.033348 0.098090 0.046891 0.008622 0.045407 -0.040018 0.006650 -0.116227 0.178882 0.015398 -0.054714 0.131925 0.096419 -0.122979 -0.159111 0.020925
0.100801 0.113704 -0.031025 -0.140485 0.010871 0.133753 -0.000246 0.130837 -0.153613 0.072511 -0.107497 0.095020 -0.087506 -0.061736 -0.135596 -0.083087 0.106764 0.107102 -0.005470 0.022005 -0.108640 0.100215 -0.106062 0.039552 -0.038084 0.162220 0.027557 0.136914 -0.083619 -0.010107 -0.080394 0.084498 0.137475 0.169654 -0.011917 -0.181505
-0.145623 0.115694 -0.135031 0.056428 0.008709 0.081241 0.181572 0.182818 -0.081538 0.063920 0.195663 0.054416 -0.023806 -0.042303 0.023489 0.147755 -0.083446 -0.073952 -0.056484 -0.027755 0.061945 0.144962 0.031395 -0.100849 0.018474 -0.149856 0.169360 0.171490 -0.091389 0.184740 0.193509 -0.043619 -0.125360 -0.041833 0.088786 0.089010
0.015023 -0.158727 0.145100 0.113857 -0.089302 0.078122 0.081627 0.018038 0.074963 0.064380 -0.167312 0.084480 0.120252 -0.046521 0.043201 -0.169695 -0.139256 -0.167808 -0.011427 0.019845 -0.120635 -0.136226 -0.116792 -0.094363 0.055223 0.051371 0.127624 0.130477 0.000319 -0.083461 0.043219 0.158585 -0.098866 -0.074717 -0.173567 -0.204901
0.060174 0.009560 -0.033809 0.015158 -0.121107 0.026880 -0.152613 0.024792 0.097348 -0.110186 -0.128656 0.026387 -0.036033 0.062804 -0.066080 -0.096923 0.054335 -0.055938 -0.212010 -0.035876 -0.116222 -0.263942 0.016145 -0.187059 -0.161370 0.098454 -0.093420 0.088805 -0.062579 -0.215328 -0.188651 -0.009196 -0.004537 -0.143712 -0.215880 -0.139194
0.091733 0.062928 0.060026 -0.074910 0.015071 -0.016913 -0.010240 0.036892 -0.037673 -0.036603 0.006083 0.060894 0.119138 0.084632 -0.093093 0.064074 0.114592 -0.007558 -0.162033 -0.159246 0.028263 -0.182654 -0.029416 -0.063785 -0.109317 0.082272 0.066633 -0.053203 0.132498 0.094788 0.097687 0.039023 0.084152 0.003648 -0.031255 -0.065895
-0.069829 0.127530 0.153446 -0.023986 -0.065370 -0.047222 0.135543 -0.103287 0.032917 -0.060844 -0.155837 -0.032079 -0.108982 0.103712 0.078459 -0.095272 -0.072138 0.016630 0.104326 -0.035689 0.232202 0.210705 -0.069859 -0.105488 0.190493 0.136636 0.154895 0.224016 0.189273 0.035323 -0.074361 -0.119027 0.062892 0.117451 0.213060 -0.110956
-0.124494 -0.046578 -0.035472 -0.142976 -0.089762 0.107743 0.001982 0.000631 -0.048279 -0.054512 -0.056143 0.008928 -0.020582 0.076833 0.008525 -0.042543 0.182089 0.246599 0.142668 -0.082648 0.087876 0.156720 0.119911 -0.061737 -0.103105 0.187822 -0.030196 0.039761 -0.133477 0.133852 0.168024 0.023154 0.077564 0.113462 -0.013389 -0.101556
0.102403 -0.109118 0.127907 -0.120901 0.006461 -0.062016 -0.122739 0.018437 -0.103544 -0.146906 -0.075398 -0.121522 -0.189977 -0.057307 -0.039113 -0.109688 0.071973 0.128176 -0.175421 0.097117 -0.126347 0.096579 -0.079856 0.002936 -0.123695 0.124592 0.089896 0.130893 0.127948 0.039480 -0.117982 0.120468 0.160771 0.067624 0.076489 0.106021
-0.106409 0.009723 -0.124433 0.068841 -0.124930 0.008022 -0.226705 -0.211416 -0.153219 0.042134 -0.108363 0.008068 -0.052602 -0.034780 0.001851 -0.066975 -0.201099 0.073258 -0.144066 -0.209911 -0.191898 0.011997 -0.111701 -0.094686 -0.059148 -0.099385 -0.106175 -0.077017 -0.146354 0.109126 -0.029808 0.125520 -0.165843 -0.094434 -0.148519 0.017478
0.070866 -0.084351 -0.099378 0.109441 -0.116330 0.001133 0.047481 -0.052394 0.126955 0.023116 0.182156 0.147459 0.087263 0.124507 0.146475 -0.074658 0.082281 -0.057981 0.162439 0.097546 -0.113297 0.018951 0.095485 -0.084612 -0.012215 -0.105571 0.129187 -0.063726 0.154668 -0.054335 0.038796 0.096034 -0.058047 0.093101 0.012474 -0.078290
0.179075 -0.157447 -0.154807 -0.100267 -0.079454 -0.085746 0.000965 -0.088896 -0.139767 -0.152504 -0.015921 -0.023034 0.066467 0.152422 -0.033101 0.148710 0.194131 -0.093324 0.173169 0.169670 0.179883 -0.012650 -0.081234 0.211920 0.208410 0.128304 0.131634 -0.081300 0.000633 0.099182 0.150160 -0.125131 0.106305 0.104056 -0.146109 0.017195
0.072157 -0.078718 -0.098033 0.132327 -0.018519 -0.004596 -0.022098 0.124348 0.087005 -0.041681 -0.073350 0.044143 -0.161180 -0.141595 -0.071786 -0.151926 0.083512 -0.052349 -0.121670 0.171241 0.043692 -0.031440 -0.043053 -0.117500 -0.074941 -0.009189 0.108522 -0.026266 -0.156624 -0.048051 0.041621 -0.100250 -0.098505 -0.062847 0.053651 -0.020199
0.081263 -0.174740 -0.078444 -0.076097 -0.037688 -0.045012 0.063646 0.137312 -0.057912 -0.112916 -0.052919 0.120063 0.022474 -0.026716 -0.020901 0.024025 -0.034169 -0.077531 0.049587 0.022611 -0.176724 -0.203787 -0.006702 -0.173363 0.104987 0.094959 0.144718 -0.136618 0.014587 0.188577 0.056742 0.006507 0.083306 -0.126144 0.067811 -0.042579
0.050680 0.170505 0.182881 0.096814 -0.135336 0.091309 0.040203 0.123535 0.059873 -0.072807 0.056171 0.142772 -0.033941 -0.162245 0.091547 -0.157742 -0.052146 0.078870 -0.071903 0.013570 0.124933 0.111295 -0.046666 -0.028124 0.114950 0.101435 -0.013020 0.120185 -0.048067 -0.107807 0.096133 0.048485 0.095970 -0.089972 0.054845 -0.001090
0.111515 -0.107048 -0.072665 0.064709 -0.212404 0.035900 -0.212778 -0.126585 0.055160 -0.098863 -0.194487 0.013628 -0.190261 -0.045289 0.001122 0.074400 -0.202487 -0.003399 -0.197260 0.015948 -0.205717 -0.084151 0.012416 -0.136578 0.044366 -0.141613 0.090854 -0.158883 -0.074145 0.005749 -0.029679 -0.005856 -0.028348 -0.026064 -0.107062 -0.128450
0.124745 0.165527 -0.047122 0.114108 -0.052109 0.194569 0.102675 0.017591 0.039604 0.168538 -0.052829 -0.075096 -0.080498 0.190116 -0.067464 -0.087733 0.202956 0.064818 0.071964 0.194014 0.094103 -0.013541 0.216450 0.032398 0.152879 0.123582 -0.141046 -0.088536 -0.038684 -0.122138 -0.125017 -0.031829 0.012384 0.127948 -0.075607 0.099144
-0.132997 0.008348 -0.046371 -0.141420 0.022934 -0.027198 0.118645 -0.063597 -0.099962 0.079955 -0.128586 -0.008089 -0.049805 -0.018879 -0.040371 -0.036874 0.041123 0.083949 -0.102675 -0.139536 -0.094125 0.156340 0.168049 -0.071643 0.049546 0.055270 -0.098107 0.032679 0.032693 0.081408 0.004332 -0.136466 -0.152460 -0.135668 -0.163678 -0.016925
0.050887 -0.043023 -0.127978 -0.080267 0.138431 0.050395 -0.112968 -0.053831 -0.086448 -0.163522 0.022241 -0.084245 0.148623 0.001647 0.095219 0.142265 -0.087226 -0.006527 -0.127489 0.129197 0.100770 -0.059640 0.089128 0.011062 0.105619 0.069435 0.129863 -0.081642 0.013523 0.067121 -0.141062 0.034125 0.160513 0.033873 -0.053554 -0.069516
0.154667 0.139882 0.102817 -0.156065 -0.166666 -0.097171 0.096879 0.077609 0.002161 0.158657 -0.122337 0.147536 0.093622 0.134597 -0.057302 0.033413 0.141324 0.018215 0.166427 0.183309 0.129710 0.046882 0.039115 -0.026226 -0.014407 0.022876 -0.026874 0.105448 -0.024292 -0.006859 0.156913 0.170332 -0.123872 -0.042326 0.149620 0.038682
-0.079383 0.151352 0.094047 -0.091757 0.136392 -0.141113 -0.015743 -0.030178 0.138213 0.040733 -0.060216 -0.091935 -0.032743 0.115949 0.009960 0.013790 0.049438 -0.093328 0.054418 -0.121085 -0.145595 -0.111934 0.039415 -0.022817 0.009648 0.042827 0.032273 0.027879 -0.005624 -0.034996 0.084039 0.175683 0.059229 -0.029896 -0.111765 0.113699
-0.014169 0.086277 -0.024502 -0.024720 -0.168735 -0.060793 -0.055096 0.088156 0.050202 -0.080179 -0.125613 0.025746 -0.151469 0.150511 -0.096773 0.005908 -0.050770 0.200248 0.010597 0.137583 -0.078803 0.167617 0.134648 0.035277 0.143330 0.128271 0.076794 -0.118737 0.007133 -0.136134 0.139353 -0.140592 -0.008607 -0.168764 -0.044040 -0.138926
0.233362 -0.107949 0.135068 0.088681 -0.079708 0.204276 0.117484 -0.063489 -0.051076 -0.114058 0.128881 -0.086002 -0.017437 0.112158 0.030562 0.210076 0.043638 -0.044499 0.278717 0.035610 0.271498 0.258289 0.044828 -0.087491 0.075445 0.027284 0.233572 0.166608 0.121158 0.011253 0.087171 -0.101277 0.225908 0.164909 0.137343 0.024022
0.070264 -0.064689 0.147415 -0.134647 -0.005499 0.054423 0.015722 -0.027977 0.046400 -0.145654 -0.194019 -0.142150 -0.014883 -0.083107 -0.057378 -0.072442 -0.123810 -0.076474 -0.132597 -0.148666 -0.072820 0.037687 -0.114543 0.070132 0.015102 -0.162070 -0.051764 0.005089 -0.131177 0.015232 0.045348 0.117316 0.045437 -0.139969 0.115685 -0.154685
0.111263 -0.111404 0.026179 -0.019173 0.151588 -0.005186 0.045124 0.030738 0.097931 0.088227 -0.140588 0.009306 0.160104 0.110877 -0.091684 -0.044855 -0.003121 -0.053718 0.112810 0.141615 0.078889 -0.164309 -0.077157 -0.058718 -0.070274 -0.051793 0.130990 0.037238 -0.005786 0.126485 0.098432 0.161701 -0.006616 0.115956 -0.005061 0.042670
-0.104739 -0.048074 0.036473 0.059140 0.150594 -0.105825 -0.044590 0.004221 -0.040518 0.020822 0.018542 -0.111669 0.056333 0.033608 -0.066376 0.071709 0.098043 0.105330 -0.058273 0.142092 0.108759 -0.016400 0.185702 0.125930 0.196962 0.258881 0.167541 -0.009706 0.118426 -0.095517 0.135319 -0.020390 0.105429 -0.022032 0.012488 -0.030052
-0.000680 -0.068907 -0.015654 0.205945 0.113228 -0.015461 -0.003142 -0.116561 0.165423 0.117499 -0.088710 -0.001463 0.145275 0.213033 0.178542 -0.051255 -0.035783 0.205227 0.214348 0.178295 0.105924 0.216560 0.078637 -0.000447 0.174809 -0.048611 0.014709 -0.103315 -0.106363 0.170243 0.217045 0.005811 0.173721 0.007047 0.090517 -0.016753
0.099892 -0.083329 -0.007081 -0.110532 0.043518 -0.036947 0.077685 0.090725 -0.198370 -0.154896 -0.058163 -0.089252 -0.091094 -0.088188 -0.079510 0.026080 0.086979 0.032901 -0.157589 -0.236317 -0.024118 0.032605 0.031445 0.019945 -0.174919 0.104736 -0.177836 0.035540 0.027758 0.121799 -0.109110 0.114095 0.022190 -0.045616 -0.026222 -0.165770
0.155898 0.221611 0.217453 0.059188 -0.011140 0.154779 0.082939 -0.096057 0.187465 0.211927 -0.008838 0.232655 0.040724 0.177751 -0.057409 0.089549 0.181405 0.092507 0.007894 0.081182 0.027872 0.026724 0.031766 0.211795 -0.043694 0.215801 0.165548 0.167634 0.115640 -0.067681 0.060143 -0.062245 0.169194 0.076807 0.188161 -0.086945
-0.130756 -0.197770 0.073356 -0.209687 -0.027822 -0.121750 -0.248901 -0.029509 -0.005995 -0.192609 -0.207457 0.072417 -0.130458 -0.011083 0.025497 -0.086776 0.091988 -0.104350 -0.189060 -0.122767 -0.009303 0.010743 -0.127155 -0.099398 -0.024674 -0.088578 0.127076 -0.092856 -0.064075 -0.071571 -0.014047 -0.072609 0.084853 0.072962 -0.170473 -0.254672
-0.040361 0.060373 0.123328 0.196069 0.145676 0.097570 0.141693 0.015472 0.151247 -0.061657 0.090974 0.071587 0.121555 0.018757 0.015321 0.103200 0.033686 -0.054496 0.005376 0.243994 0.105591 0.143194 0.290538 -0.029306 0.219602 0.096966 -0.074836 0.022949 0.119031 0.037298 -0.021672 0.181171 0.245798 -0.015641 0.264011 0.045868
-0.095701 -0.006623 -0.023079 -0.192223 -0.078765 -0.214541 0.062045 0.052444 -0.060783 -0.070923 -0.115478 0.032690 -0.075943 0.038785 0.120855 -0.161304 -0.031660 -0.009721 -0.167036 -0.222175 -0.095663 -0.029570 -0.196804 -0.070053 -0.014576 -0.177994 -0.098299 0.110715 0.031235 -0.066644 0.098437 0.037374 -0.038328 0.015071 0.046240 -0.111684
-0.165965 -0.071869 -0.120975 -0.009046 -0.146039 0.130187 -0.165019 -0.158020 -0.132463 -0.085116 0.123283 -0.102286 -0.110634 0.056842 -0.052870 -0.029593 -0.120674 0.154691 -0.143557 0.089535 -0.033479 -0.155321 -0.002613 -0.051430 -0.105934 -0.146411 -0.084948 -0.033330 -0.048217 0.065064 0.128342 0.026212 -0.142216 -0.045510 -0.058793 -0.014503
0.177336 0.163012 0.002001 0.053798 0.058552 0.074621 -0.072494 0.115972 0.101278 0.029332 -0.061246 0.133416 -0.078524 -0.036567 0.069523 0.002765 0.096066 0.029783 0.169996 0.187454 0.155150 -0.071502 0.071976 -0.008797 0.251771 -0.031404 0.250452 0.192561 0.239372 0.196892 -0.056306 0.056566 -0.117848 -0.084659 0.099229 -0.110608
-0.072298 0.103553 -0.013330 0.036482 0.140782 -0.020335 -0.065144 -0.035236 0.183131 0.095231 0.171079 0.183750 0.106907 0.005633 0.034452 -0.099443 -0.054158 -0.115356 0.159616 0.019650 0.082829 0.042096 -0.113833 -0.082965 -0.134095 0.079681 -0.083600 0.124584 0.117774 -0.051236 0.051254 0.046340 -0.147549 -0.128892 0.090076 -0.097272
0.004882 0.111981 -0.066693 -0.029605 0.173699 0.104974 0.018012 -0.033066 -0.016424 -0.137242 -0.038599 0.124091 0.200273 0.129879 0.018104 -0.089319 0.125178 0.080275 0.148891 -0.074776 0.164762 0.244263 0.211478 -0.028737 0.144368 0.044597 -0.032472 0.098506 0.000295 0.103637 0.137403 -0.011903 0.081187 0.196348 -0.011235 -0.080369
-0.130718 -0.071475 -0.116297 0.073295 -0.039966 -0.113855 -0.102999 0.056545 0.111653 0.139246 -0.110304 0.070680 -0.035655 -0.121372 -0.144459 0.094691 0.001006 -0.117214 -0.121604 -0.036084 -0.187274 0.029865 0.062876 -0.100822 0.097625 -0.099574 0.017714 0.017413 -0.031910 -0.002713 0.153405 0.150044 0.151960 0.079632 0.092044 -0.045793
-0.195709 -0.038149 0.109654 -0.006259 -0.093478 0.079966 0.076282 -0.195615 -0.045256 -0.120338 0.079662 -0.065855 0.066366 -0.113474 0.025946 0.069612 -0.165675 -0.183144 -0.018429 0.098586 -0.029536 0.054884 0.005367 -0.122172 -0.118964 -0.134810 -0.007640 -0.173366 0.074071 -0.181348 -0.024661 0.029794 -0.186860 0.043093 0.055020 -0.008273
-0.108589 -0.049747 0.144543 0.117793 0.019896 -0.037777 0.072608 0.057710 0.128756 -0.074761 0.172763 -0.057520 -0.126472 0.116340 0.115610 0.079739 0.076374 -0.059668 -0.099087 0.171894 -0.173422 0.118127 -0.153779 -0.061837 0.066276 0.136956 -0.034098 0.040545 -0.054862 -0.070245 -0.013824 -0.015909 -0.099409 0.118262 -0.113701 0.160886
-0.021987 0.034065 0.028347 -0.013060 -0.014074 -0.116321 0.124547 0.142477 -0.060574 -0.141340 -0.179281 0.139035 0.004150 0.078437 -0.145801 0.089603 0.010052 0.150702 -0.013663 0.150786 -0.087878 -0.101380 0.104201 -0.089152 0.054652 0.242315 0.030709 0.217897 0.196044 0.146308 -0.098778 0.016019 0.012439 -0.170725 0.085184 -0.206008
-0.187673 0.044620 0.031368 -0.152788 -0.143347 0.112580 -0.035840 0.100851 -0.092697 0.006142 -0.130352 0.115270 -0.086860 -0.027406 -0.230213 -0.115005 -0.005595 -0.102970 -0.107699 -0.150909 -0.023664 0.037750 -0.225734 -0.118420 -0.167528 -0.046558 0.013255 -0.095100 -0.153003 -0.048827 -0.255165 -0.140595 -0.149584 -0.170022 -0.258336 -0.156027
-0.035745 -0.065336 -0.038900 -0.051613 -0.135312 0.110515 -0.201957 -0.188905 0.042787 0.032292 -0.173107 0.009540 0.066374 0.035089 0.117120 -0.159314 0.121212 -0.071813 0.049002 0.040817 -0.216877 -0.178080 -0.082696 -0.049164 0.114652 0.173088 -0.141346 -0.025910 0.083518 0.100917 -0.060121 0.103944 -0.103340 -0.069606 0.024686 0.012967
-0.042102 -0.105276 0.079774 -0.104358 0.144085 0.100936 -0.077587 0.035192 -0.003070 -0.107632 0.138689 0.145546 0.112199 0.128427 0.118559 0.073665 -0.060950 -0.105613 0.138276 -0.083396 -0.089559 0.175539 -0.118896 0.171185 0.055406 0.125239 0.108905 0.091192 0.085093 0.026412 -0.101954 0.044748 0.097741 -0.093924 -0.047978 -0.103462
0.004359 -0.181786 -0.157238 -0.114349 -0.067868 -0.037078 -0.206724 0.095665 -0.208150 -0.097282 -0.221093 -0.122349 0.006244 -0.205595 0.013898 0.048253 0.021276 -0.023928 0.041785 -0.011682 0.018551 0.008513 -0.111995 -0.188356 -0.056519 0.003437 -0.133685 0.151404 -0.154409 0.155475 -0.001644 -0.083217 -0.071067 -0.088865 -0.062341 -0.239257
0.004141 0.050453 0.179479 0.173369 -0.078700 0.189593 0.198314 0.100608 -0.025923 -0.024301 0.010277 0.066787 0.074439 0.047375 0.067301 0.184242 -0.027914 0.230704 -0.063199 0.256404 0.042802 0.040900 0.175559 -0.060326 0.163711 0.089322 -0.080217 -0.024537 0.030631 0.056560 -0.081728 -0.019377 0.166236 0.111511 0.181881 -0.049179
-0.014451 0.071784 0.148391 -0.182448 0.005481 -0.090829 0.020429 0.009517 0.112693 -0.184672 -0.100343 -0.094129 0.098420 0.028185 -0.010949 -0.078848 -0.221662 -0.036211 0.020318 0.059063 -0.009362 0.069404 -0.032566 -0.087935 0.087366 0.117184 -0.022503 0.091435 0.155810 0.131028 -0.038639 0.132139 0.127924 -0.146644 0.030921 0.099302
-0.024434 0.012080 -0.192563 0.046107 0.049786 -0.022210 0.036102 0.042125 -0.174914 0.041621 -0.013041 -0.083122 0.107604 0.019099 -0.158741 -0.183069 -0.008176 -0.041773 0.062436 -0.090266 -0.106449 -0.146716 0.042561 0.031427 -0.189260 -0.132662 0.078943 0.021810 0.030883 -0.234606 -0.128285 0.092348 -0.019715 -0.221907 -0.026638 -0.038170
0.121360 0.076978 0.078610 -0.004980 0.067747 0.071880 0.048241 0.145114 0.071928 -0.025238 -0.098370 0.148113 -0.109375 0.096896 -0.053859 0.201843 0.110243 0.126011 0.034158 0.238720 0.165914 0.013121 -0.061093 -0.005381 0.179777 0.120742 0.192317 0.097859 -0.034276 0.238670 -0.020562 0.083451 0.126205 0.000923 -0.085625 0.090795
-0.053579 -0.185272 0.082307 -0.148027 0.098614 -0.132081 -0.078007 0.024721 -0.011646 0.079331 0.092557 0.088411 -0.147424 -0.059936 0.169217 0.175759 0.059351 -0.056957 -0.064721 -0.047191 0.199856 -0.110364 -0.093480 -0.021913 0.100529 0.142273 0.087251 -0.157369 -0.187840 -0.093166 -0.125221 0.103735 -0.151626 -0.108527 0.006546 -0.132600
-0.094707 -0.064301 -0.105759 -0.157893 -0.092189 -0.141746 -0.127471 0.039867 0.052793 -0.090632 0.116234 0.192866 -0.038105 -0.054074 0.093299 0.125837 0.094507 0.090136 -0.102087 -0.015750 0.020628 0.182254 -0.059612 0.189656 -0.013033 0.074246 0.078648 -0.105015 0.120279 0.029561 0.130646 -0.067314 0.114100 0.121776 -0.125641 -0.133133
-0.042751 0.114374 -0.130310 0.137749 -0.156145 -0.131794 -0.113455 -0.173314 -0.017324 0.066372 -0.150398 -0.043229 -0.068963 0.026332 -0.018098 0.126173 0.093092 -0.015950 -0.079727 0.168789 0.031639 -0.117155 -0.063673 -0.104806 -0.123222 -0.034559 -0.165224 -0.070428 -0.067069 0.086265 -0.058600 -0.161121 0.040550 -0.047011 -0.129701 0.100150
0.108749 0.028741 0.055838 -0.133480 0.117008 0.086420 -0.005756 0.143778 -0.135451 -0.193831 0.132986 -0.171931 -0.166478 0.121149 -0.096580 0.060536 0.122454 0.033841 0.037003 0.078672 -0.087361 -0.138524 0.054279 0.013196 -0.035638 0.122748 0.113078 -0.145362 0.053710 0.105517 -0.024088 -0.051039 0.080931 -0.113050 0.079412 -0.063515
-0.148864 -0.153070 -0.098327 0.023289 0.088344 0.165822 -0.065685 -0.136857 0.163848 0.147629 0.047825 -0.092380 -0.105279 -0.081007 -0.166895 -0.019651 -0.159507 -0.102832 -0.084351 -0.182706 -0.178828 -0.079945 0.033030 -0.178951 0.029960 0.007529 0.004266 -0.012040 0.069551 -0.089152 0.199434 -0.094840 0.124082 -0.125738 -0.045166 -0.045190
0.083727 -0.118802 -0.059555 0.029932 0.081511 0.077950 -0.068564 -0.009027 -0.084595 0.112356 0.012362 -0.044903 -0.028441 -0.130824 -0.097242 0.018085 -0.194716 -0.144579 0.084283 0.068327 -0.067962 0.011809 -0.218076 -0.151140 -0.136355 -0.003607 0.148107 0.016509 0.139093 0.088786 -0.048825 0.137212 -0.056004 -0.063549 0.004175 -0.206815
0.057323 0.109915 0.103119 0.072338 0.001045 -0.133096 0.069707 0.102140 -0.145927 0.038010 -0.091852 0.155691 0.029975 0.051393 -0.047086 -0.035133 0.103351 0.150880 -0.111499 0.041703 -0.142308 0.140511 0.040227 0.114069 -0.030662 0.059428 -0.042615 -0.023768 0.042525 -0.087057 0.024018 0.177019 0.163369 -0.040789 -0.158129 0.173006
0.024783 0.131315 -0.119297 0.006969 0.146520 0.064737 -0.162810 0.109737 0.093804 -0.041697 0.159958 0.115056 -0.075399 0.092821 0.095075 0.006538 -0.050575 -0.051652 0.046926 0.009970 0.082136 0.137637 0.125476 0.170353 -0.031842 0.149286 0.158246 -0.001328 -0.047475 0.164029 0.066281 -0.006072 0.014397 -0.072620 -0.018434 -0.176290
0.066507 0.110686 0.099379 -0.085737 0.175236 -0.125770 0.021796 0.052527 -0.114625 -0.124193 -0.128639 -0.041220 0.128765 0.137809 0.026025 -0.169863 -0.108013 -0.009195 -0.130938 0.055622 -0.030457 -0.030073 -0.061636 -0.001677 0.050316 0.102389 -0.053298 -0.077343 0.047121 -0.000250 -0.142782 -0.136734 0.117282 0.117695 -0.000182 -0.133064
-0.057581 -0.037020 -0.051116 0.079191 0.039458 -0.107723 0.093003 0.028975 0.062960 0.108977 -0.145645 0.128285 -0.165984 0.141091 -0.012425 -0.035081 -0.048624 -0.147866 -0.206262 -0.004304 -0.154268 0.118867 0.097893 -0.216043 0.106593 0.122942 -0.108180 -0.042577 0.101444 0.106910 -0.012578 0.017079 0.110525 -0.123804 -0.161536 0.072029
