0.000542 0.002186 0.002353 0.004380 0.004648 -0.001252 -0.002006 -0.008001 -0.000996 0.000158 -0.001622 0.001359 0.004834 0.003505 0.005997 0.007405 0.002631 0.001474 0.002697 -0.000140 -0.005847 -0.012118 -0.011215 -0.012007 -0.004231 -0.004722 -0.003135 -0.005337 -0.003665 0.004287 0.014120 0.045098 0.091784 0.164362 0.265949 0.414633
0.001363 0.001295 0.002864 0.003303 0.004756 0.003340 -0.001296 -0.003118 -0.005979 -0.000293 0.001260 0.000218 0.003548 0.005962 0.005180 0.006949 0.006174 0.001441 -0.000577 -0.001162 -0.005319 -0.012862 -0.016180 -0.015787 -0.014087 -0.006681 -0.004587 -0.000989 0.003071 0.010811 0.026629 0.051516 0.098096 0.163310 0.253177 0.374912
0.005612 0.001690 0.000734 0.003196 0.004319 0.004439 0.001915 -0.004830 -0.004275 -0.008169 -0.000167 0.001786 0.000167 0.004051 0.007905 0.006486 0.007984 0.006887 0.001835 -0.000172 -0.002558 -0.009758 -0.016179 -0.020649 -0.017727 -0.015745 -0.005774 -0.003538 0.003171 0.008579 0.020161 0.047755 0.089648 0.160511 0.253648 0.384114
0.002839 0.004805 0.002003 0.001664 0.004458 0.003525 0.002715 0.000346 -0.003816 -0.003976 -0.007456 0.001639 0.002800 0.001543 0.005999 0.008878 0.006850 0.007318 0.006386 -0.000115 -0.004371 -0.008291 -0.013489 -0.019885 -0.021669 -0.018834 -0.014726 -0.004374 0.002317 0.012969 0.024361 0.049681 0.093014 0.154675 0.245436 0.369929
0.003755 0.001404 0.004114 0.002331 0.003321 0.004017 0.002361 0.001737 0.000498 -0.004196 -0.003934 -0.005733 0.002346 0.003825 0.003716 0.007051 0.008692 0.006579 0.007200 0.005710 -0.002861 -0.008662 -0.011118 -0.016794 -0.021175 -0.023030 -0.018706 -0.013409 0.001321 0.010090 0.024446 0.047672 0.088204 0.153779 0.240919 0.369935
-0.000407 0.004775 0.001955 0.006340 0.005019 0.002867 0.003373 0.001471 0.001460 0.001462 -0.003248 -0.001740 -0.004662 0.003566 0.005761 0.004422 0.007090 0.008657 0.006716 0.006710 0.001501 -0.007589 -0.012027 -0.014891 -0.018159 -0.022379 -0.022723 -0.017067 -0.007762 0.009012 0.022988 0.049550 0.088532 0.150494 0.238567 0.360523
-0.002924 0.001884 0.005357 0.003828 0.007448 0.004578 0.002488 0.002406 0.001418 0.002896 0.002257 -0.001216 -0.000398 -0.003100 0.005010 0.006795 0.004535 0.006520 0.007591 0.004273 0.001569 -0.003436 -0.011120 -0.016206 -0.016476 -0.019211 -0.021495 -0.019943 -0.009910 0.002666 0.024810 0.050507 0.092156 0.149586 0.230275 0.346859
-0.004796 0.000053 0.003513 0.006344 0.005290 0.007328 0.004246 0.001868 0.002550 0.002610 0.003935 0.003886 0.000584 0.000854 -0.000852 0.005589 0.005121 0.002912 0.003961 0.003797 -0.000477 -0.003883 -0.007589 -0.014598 -0.016973 -0.016738 -0.016970 -0.016757 -0.010654 0.002859 0.020668 0.053004 0.092338 0.148694 0.222291 0.326889
-0.007688 -0.001423 0.001854 0.005903 0.009821 0.005584 0.007054 0.002825 0.001505 0.003020 0.002913 0.004794 0.004323 0.000880 0.001927 -0.000599 0.005738 0.005485 0.003207 0.004641 0.002683 -0.002978 -0.005181 -0.009408 -0.015578 -0.018084 -0.017483 -0.017676 -0.014015 -0.005774 0.011379 0.038261 0.085139 0.143907 0.226441 0.340144
-0.009298 -0.003818 0.001223 0.005046 0.008503 0.009678 0.005736 0.006464 0.003143 0.002963 0.004213 0.004309 0.005608 0.005456 0.002045 0.002740 -0.000650 0.005227 0.005185 0.002238 0.001239 -0.000394 -0.005275 -0.008048 -0.010791 -0.016410 -0.017883 -0.015822 -0.011984 -0.004077 0.008712 0.034611 0.076119 0.139975 0.221433 0.336764
-0.004548 -0.005812 -0.001667 0.003436 0.006535 0.007799 0.009200 0.004833 0.005971 0.004029 0.002873 0.004801 0.005002 0.006875 0.006327 0.002238 0.002936 -0.001169 0.004707 0.004000 -0.001678 -0.002137 -0.003795 -0.008511 -0.009581 -0.012105 -0.016010 -0.015250 -0.008612 -0.002053 0.008306 0.030986 0.072824 0.131754 0.215724 0.326466
-0.000034 -0.002662 -0.004473 -0.000735 0.003787 0.005619 0.006904 0.007495 0.004347 0.006577 0.004495 0.004368 0.006123 0.006245 0.007357 0.006804 0.002949 0.002021 -0.001674 0.002481 -0.000573 -0.004948 -0.005652 -0.006812 -0.009906 -0.010858 -0.010940 -0.012721 -0.008011 0.000871 0.012542 0.032467 0.068639 0.126302 0.202713 0.313577
0.002082 -0.001348 -0.002409 -0.003501 0.000564 0.004271 0.005473 0.006412 0.007938 0.005604 0.007851 0.005530 0.005184 0.006630 0.006841 0.008255 0.007072 0.002367 0.000695 -0.003482 -0.000316 -0.002752 -0.007268 -0.008181 -0.007789 -0.010348 -0.009441 -0.008051 -0.006530 0.001241 0.015056 0.034152 0.066870 0.118705 0.194646 0.301589
0.009103 0.002472 -0.001277 -0.002947 -0.003977 -0.000143 0.002204 0.003521 0.006006 0.008000 0.005970 0.008465 0.006675 0.006191 0.007724 0.007706 0.008237 0.006316 0.001504 -0.000505 -0.006344 -0.003824 -0.005828 -0.009773 -0.009061 -0.008676 -0.009142 -0.006019 -0.001024 0.004036 0.016229 0.037539 0.069679 0.116633 0.183051 0.280038
0.010565 0.003136 -0.000106 -0.002348 -0.002591 -0.004163 -0.000956 0.002584 0.003981 0.007013 0.008829 0.007107 0.008785 0.007097 0.006898 0.008275 0.008007 0.008308 0.005690 0.000370 -0.002776 -0.008199 -0.005044 -0.007341 -0.010674 -0.009094 -0.007973 -0.007544 -0.002080 0.005815 0.013851 0.032295 0.065041 0.112716 0.180026 0.281020
0.015327 0.007188 0.001408 -0.002026 -0.003374 -0.003634 -0.005650 -0.002406 0.001825 0.004697 0.007072 0.010577 0.007964 0.009806 0.008510 0.007966 0.008979 0.007623 0.006591 0.004647 -0.002552 -0.005277 -0.010433 -0.007942 -0.008872 -0.011038 -0.008481 -0.004604 -0.001250 0.006785 0.018269 0.033772 0.064038 0.111166 0.173860 0.265207
0.019684 0.009109 0.004012 -0.001617 -0.002936 -0.004167 -0.005179 -0.006368 -0.002003 0.002168 0.005057 0.008455 0.010632 0.008311 0.010814 0.008865 0.008013 0.007758 0.006132 0.005129 0.000966 -0.004858 -0.007839 -0.012474 -0.009014 -0.009213 -0.009501 -0.005082 0.001034 0.007544 0.020390 0.038241 0.064962 0.107254 0.166735 0.249926
0.017274 0.010134 0.004408 0.001715 -0.001384 -0.003453 -0.004946 -0.004862 -0.005776 -0.000973 0.002820 0.006614 0.008677 0.011317 0.009498 0.011536 0.009194 0.007733 0.007174 0.005448 0.003298 -0.000124 -0.006429 -0.009563 -0.013965 -0.009259 -0.008683 -0.008235 -0.001077 0.007135 0.016984 0.034395 0.062742 0.102150 0.162944 0.254862
0.016521 0.010901 0.007011 0.002719 0.001181 -0.001976 -0.003841 -0.004976 -0.004922 -0.004945 -0.000607 0.004094 0.006950 0.009170 0.011726 0.009942 0.011073 0.008001 0.005955 0.005373 0.002988 0.000875 -0.002220 -0.008843 -0.010091 -0.013159 -0.007927 -0.005422 -0.002433 0.006991 0.019719 0.034410 0.062818 0.103022 0.156771 0.239309
0.019767 0.011611 0.008278 0.004459 0.001480 -0.000488 -0.003816 -0.004603 -0.005494 -0.004810 -0.005088 0.000535 0.004336 0.007543 0.010258 0.012537 0.010453 0.011304 0.007848 0.005846 0.004006 0.001288 -0.000449 -0.004184 -0.009715 -0.010936 -0.013751 -0.007057 -0.002060 0.004872 0.017030 0.034259 0.059890 0.100015 0.156518 0.236627
0.017752 0.011622 0.007887 0.005927 0.004071 0.001878 -0.000326 -0.002788 -0.003358 -0.003858 -0.002700 -0.002357 0.001373 0.005072 0.007496 0.009350 0.010828 0.007816 0.008219 0.005263 0.002540 0.001025 -0.001049 -0.002671 -0.004453 -0.008008 -0.007363 -0.006569 0.001988 0.009877 0.019649 0.037413 0.063308 0.097396 0.145405 0.213178
0.017881 0.012525 0.008923 0.005402 0.004648 0.003220 0.000035 -0.001088 -0.002992 -0.003468 -0.003307 -0.002122 -0.002011 0.001417 0.005048 0.007104 0.008852 0.009355 0.006642 0.006691 0.002951 0.000511 -0.000396 -0.002137 -0.002734 -0.004044 -0.005809 -0.003374 -0.000734 0.010617 0.021683 0.036143 0.061203 0.095617 0.139222 0.202628
0.021984 0.014413 0.009688 0.005499 0.003353 0.003008 0.000578 -0.001864 -0.002695 -0.004061 -0.004580 -0.003797 -0.002798 -0.002608 0.001767 0.006120 0.008649 0.009972 0.010898 0.007417 0.006844 0.002572 0.000139 -0.001762 -0.003268 -0.004014 -0.004576 -0.006639 -0.002838 0.001361 0.016016 0.031014 0.054621 0.092150 0.143730 0.215935
0.024755 0.014394 0.009861 0.006071 0.003903 0.001644 0.000954 -0.000409 -0.002149 -0.002094 -0.004398 -0.003240 -0.003389 -0.002479 -0.002074 0.002635 0.006715 0.008442 0.009435 0.010338 0.005928 0.005302 0.001393 -0.002080 -0.002383 -0.003515 -0.002920 -0.002426 -0.002240 0.003894 0.010865 0.029708 0.054479 0.087944 0.139577 0.213127
0.025556 0.016807 0.009840 0.006493 0.004539 0.002165 -0.000148 0.000266 -0.000713 -0.001617 -0.002507 -0.002921 -0.002976 -0.002819 -0.001718 -0.001291 0.002926 0.006196 0.007507 0.008592 0.008504 0.004234 0.004125 -0.000645 -0.002643 -0.002512 -0.002577 -0.000902 0.001916 0.004596 0.013286 0.024639 0.053039 0.087373 0.134472 0.206859
0.024710 0.016907 0.011879 0.006250 0.005028 0.003519 0.000616 -0.000742 -0.000257 -0.000421 -0.001547 -0.000835 -0.002276 -0.002148 -0.002393 -0.001429 -0.001014 0.001886 0.004632 0.006116 0.006193 0.006033 0.002924 0.002448 -0.000597 -0.002113 -0.000814 0.000361 0.004071 0.009367 0.014880 0.028196 0.048426 0.085132 0.130629 0.194749
0.033009 0.018661 0.011945 0.007002 0.002793 0.001833 -0.000759 -0.001804 -0.001966 -0.000464 -0.001002 -0.000615 -0.000677 -0.001884 -0.001360 -0.001492 -0.000050 -0.000852 0.002197 0.005109 0.004736 0.005156 0.005839 0.001559 0.001880 -0.001681 -0.001970 0.000018 0.002997 0.009029 0.016420 0.026958 0.048656 0.078745 0.128221 0.196138
0.029554 0.018757 0.011241 0.007453 0.005463 0.002462 0.000661 -0.000054 -0.000877 -0.000995 0.000306 0.000693 -0.000243 -0.000310 -0.001695 -0.001525 -0.001471 -0.001558 -0.002458 0.000492 0.002435 0.002998 0.004203 0.004130 0.001204 0.001768 0.000071 0.000721 0.004879 0.010237 0.018959 0.030768 0.048455 0.078510 0.119192 0.185865
0.030337 0.019590 0.012866 0.006971 0.005093 0.004156 0.000374 -0.000028 -0.000303 -0.000651 -0.000423 0.001211 0.001108 -0.000114 -0.000449 -0.001699 -0.001538 -0.002309 -0.002532 -0.003330 -0.001448 0.000417 0.001911 0.002676 0.003702 0.001299 0.003259 0.002947 0.005860 0.012360 0.020289 0.033020 0.051902 0.077472 0.116094 0.170344
0.040571 0.024067 0.013574 0.006764 0.002294 0.001272 -0.001010 -0.003059 -0.001954 -0.001244 -0.001441 -0.000117 0.001417 0.001490 0.001182 0.001177 0.000359 -0.000393 -0.001500 -0.001693 -0.004697 -0.002412 0.000585 0.001301 0.002269 0.002858 0.000647 0.003117 0.004097 0.008747 0.017213 0.029678 0.049567 0.078648 0.116934 0.177950
0.039145 0.024879 0.014915 0.007877 0.004306 0.000156 -0.000508 -0.000554 -0.002116 -0.000746 -0.000672 -0.000063 0.000240 0.002005 0.002903 0.001738 0.001824 -0.000120 -0.001007 -0.002251 -0.003738 -0.005810 -0.002751 -0.000737 0.000456 0.001835 0.003440 0.002209 0.006894 0.009975 0.017095 0.030041 0.048839 0.076552 0.117303 0.173238
0.039744 0.025526 0.016255 0.009077 0.004618 0.001056 -0.002278 -0.001570 -0.001330 -0.001952 -0.001324 -0.000012 0.000372 0.000485 0.003043 0.002973 0.002019 0.001820 -0.000830 -0.002016 -0.004262 -0.005306 -0.006674 -0.004649 -0.001795 -0.000173 0.001884 0.004891 0.005739 0.012540 0.017823 0.028588 0.047870 0.074343 0.115250 0.172468
0.043432 0.028867 0.018215 0.010377 0.004842 0.000924 -0.002764 -0.004566 -0.003192 -0.001932 -0.002927 -0.000424 0.000693 0.001146 0.002030 0.003394 0.003633 0.002428 0.000991 -0.001243 -0.004088 -0.005652 -0.006230 -0.008042 -0.004868 -0.002525 -0.000045 0.003511 0.008370 0.011254 0.019843 0.029949 0.047378 0.074910 0.112665 0.167772
0.044970 0.026447 0.018417 0.011352 0.006724 0.002036 -0.001865 -0.003213 -0.004278 -0.001936 -0.001786 -0.001041 -0.001457 0.001765 0.002893 0.002631 0.004635 0.004033 0.001825 0.001010 -0.003527 -0.005342 -0.006611 -0.007816 -0.008959 -0.006079 -0.002037 0.001479 0.006644 0.013333 0.017928 0.031321 0.046481 0.072602 0.112325 0.168312
0.044461 0.027925 0.016426 0.011978 0.007742 0.003668 -0.000033 -0.002379 -0.003253 -0.003263 -0.002553 -0.000592 -0.000928 0.000767 0.002491 0.002651 0.002370 0.003772 0.002443 0.000714 -0.001650 -0.004823 -0.006106 -0.008269 -0.008368 -0.009160 -0.005440 -0.000213 0.005273 0.012349 0.021268 0.030309 0.049022 0.072109 0.109202 0.163960
0.037684 0.027882 0.019235 0.011531 0.008945 0.006277 0.002806 -0.000060 -0.001679 -0.001966 -0.002644 -0.000601 0.000422 -0.000435 0.000588 0.001434 0.001153 0.000846 0.000817 0.000165 -0.002649 -0.004002 -0.006090 -0.006556 -0.007404 -0.007081 -0.006248 -0.001078 0.005746 0.012910 0.022229 0.034975 0.049671 0.073823 0.103634 0.147336
