-0.038984 0.131176 0.122290 0.118053 -0.090984 0.010373 0.014138 -0.164683 0.018588 -0.121027 -0.071973 0.159467 -0.004642 -0.145353 -0.069951 0.112781 0.127965 0.152108 -0.018440 0.082824 -0.088037 -0.013474 0.066133 -0.036815 0.156615 -0.105903 -0.153687 0.079771 -0.104789 -0.054305 0.149075 -0.055980 -0.099078 0.054830 0.174750 0.201169
0.029697 -0.122777 0.100290 -0.004088 0.120019 -0.050511 -0.028018 -0.013096 -0.192982 0.068940 -0.199803 -0.109788 -0.066224 0.028110 -0.130322 0.077966 0.019113 -0.080677 -0.084427 0.000957 -0.090197 -0.197209 -0.078423 0.006937 -0.055950 0.132555 0.110379 0.018686 0.023041 0.003442 0.102731 0.082865 0.151001 -0.097811 -0.029195 0.253463
-0.095254 0.170803 0.097171 -0.028403 -0.099340 0.098740 0.021993 -0.034771 0.000158 -0.053738 -0.053289 -0.079222 -0.056004 -0.116813 -0.041787 -0.134601 -0.135407 -0.118036 0.008551 0.081504 0.106410 0.152382 -0.092667 0.177313 -0.053101 0.013379 -0.121382 -0.005007 -0.120894 -0.068579 -0.073074 -0.100722 0.000008 0.055366 -0.007290 -0.045226
0.057221 0.013934 -0.020153 0.044332 -0.101875 0.118957 0.074486 0.127408 0.185874 -0.135712 -0.138289 0.106408 0.072382 0.024091 -0.103478 -0.051626 0.087225 0.137214 -0.121267 -0.113332 0.048421 -0.104285 0.122044 0.070829 0.134894 -0.072833 -0.001079 -0.013005 -0.121978 0.156141 -0.105315 0.173264 -0.104953 -0.084812 -0.196944 -0.417829
-0.029470 0.056642 -0.084476 -0.124522 0.150544 0.123753 0.117121 -0.059397 0.019945 -0.079670 0.093793 -0.138249 0.075509 0.159084 0.167977 -0.156785 0.151709 0.107475 -0.017582 0.122052 -0.045050 -0.008402 0.117243 -0.076002 0.046161 -0.128939 -0.163469 -0.072331 0.127467 -0.156897 0.068157 -0.138808 -0.013680 -0.104092 -0.078992 -0.392006
0.174345 -0.035382 0.006489 0.111216 0.064222 0.106980 -0.069550 -0.111699 -0.072753 -0.064517 -0.140700 0.027002 0.084506 0.112993 0.152657 0.112114 0.025606 -0.081598 -0.093472 0.104071 0.087689 0.076834 -0.135173 0.122581 -0.068195 -0.028777 -0.158053 -0.161736 -0.119186 -0.140707 0.087814 0.074688 0.132420 0.014323 0.111768 0.143920
-0.044476 -0.162147 -0.052612 -0.094819 0.067067 0.031563 -0.155465 0.139496 0.102690 0.143212 -0.044216 -0.156961 -0.046609 -0.013186 -0.151353 -0.076563 0.021382 0.113019 0.127786 -0.085716 0.008859 -0.072631 0.037601 0.157243 -0.066549 0.121239 -0.102880 0.084457 0.104080 0.141842 -0.101182 0.162964 -0.082659 -0.019147 0.063184 0.221688
0.045878 -0.081031 -0.092678 -0.115346 -0.006892 -0.094623 -0.169127 0.104417 -0.054907 -0.062820 0.054896 -0.176177 0.106565 0.037446 0.036080 0.009640 -0.151288 0.028375 -0.168094 0.157862 0.127028 -0.125847 0.166943 -0.114274 0.176414 0.027436 -0.101499 0.002758 -0.038945 -0.129104 -0.100331 0.047262 0.066432 -0.137630 -0.027389 -0.033046
-0.004330 0.223566 0.083543 0.032822 -0.092286 0.096470 0.122856 -0.019117 0.048211 0.159842 0.009479 0.091086 -0.139837 0.024601 -0.058250 0.064005 0.091921 -0.045453 -0.072351 -0.160813 -0.159663 0.003426 -0.178076 -0.149227 -0.068110 -0.092765 -0.157041 -0.033096 -0.026549 0.075156 0.074158 -0.072953 0.065988 -0.003947 -0.132335 -0.033503
0.112070 -0.044637 0.047261 -0.156819 -0.087679 -0.102491 0.169518 -0.132706 0.002650 0.100629 0.076634 -0.073514 -0.106333 -0.030671 -0.105870 -0.129763 0.149438 0.095051 0.096582 0.006185 0.088552 -0.154246 0.025576 0.058384 0.137571 -0.141214 0.188250 0.010809 -0.089602 0.076573 0.118628 -0.069943 0.082973 -0.154530 -0.229234 -0.320985
0.001247 -0.021210 0.173672 -0.118433 -0.029976 -0.137824 -0.043997 -0.107582 0.041828 -0.020333 -0.137486 0.044121 0.138744 0.074988 0.059648 -0.141095 0.014405 -0.070555 -0.119350 -0.162759 0.091277 -0.104932 0.152843 0.144396 -0.011724 0.017648 0.150595 -0.021141 0.135891 -0.164574 -0.114008 -0.042914 0.112579 -0.028923 -0.099756 -0.270261
0.116137 0.008572 -0.126255 0.175188 0.119557 -0.069192 -0.132376 -0.129715 0.029772 0.007539 -0.165251 0.146506 -0.180113 -0.166814 0.034493 0.130095 -0.084549 0.038862 0.048986 -0.026739 0.071889 -0.102559 0.043538 -0.032404 -0.086147 -0.056598 -0.015459 0.084468 -0.083385 0.013224 -0.045602 -0.131779 0.162871 0.105537 -0.106395 -0.157633
0.061971 -0.071300 -0.090529 0.157360 -0.068834 -0.057610 -0.068977 0.071777 0.140765 -0.065951 -0.025032 -0.094268 0.169019 -0.016297 -0.092567 0.136917 0.021010 0.043462 -0.013414 -0.123439 -0.103299 0.125322 0.161900 -0.051032 -0.007636 -0.082121 -0.104512 -0.099396 -0.106532 0.001358 -0.081669 0.030457 0.160778 0.139062 -0.164234 -0.317583
0.058992 0.068946 -0.063478 0.060151 0.053333 0.078323 0.041613 -0.012072 -0.006068 -0.134566 -0.094376 0.109078 0.095868 0.122098 -0.056586 -0.109353 0.100714 0.153711 0.082780 0.058343 -0.157977 0.150520 -0.095606 -0.069070 0.084031 -0.170594 0.058350 0.121074 -0.060451 0.000064 0.097400 -0.008108 0.057592 -0.099043 0.129091 0.178021
0.165211 0.078458 0.120150 -0.056234 -0.143261 -0.162888 0.018284 -0.057294 -0.019257 -0.146541 0.101513 0.127377 0.025436 -0.090032 -0.048454 0.006048 0.060872 -0.164695 0.080636 0.018645 -0.098945 0.111919 0.027456 -0.112524 -0.064007 -0.175547 -0.068566 -0.063377 -0.105041 0.084726 0.114442 0.071808 0.187305 0.037272 0.015212 0.350916
-0.039466 -0.004104 -0.101840 -0.060309 0.029163 -0.000749 -0.088977 0.139068 -0.037558 -0.012772 -0.115078 -0.108263 0.111275 -0.043338 -0.068629 -0.003448 0.154963 -0.127668 -0.100864 -0.060549 0.080667 -0.089440 -0.020498 0.084127 0.094396 0.009520 0.060410 -0.004814 -0.023952 0.068829 -0.049777 -0.053289 0.042174 -0.142323 0.072968 -0.299017
0.069225 0.064017 -0.065978 -0.138448 -0.061654 0.021507 -0.050701 0.066861 -0.063593 0.007357 0.031148 0.086141 -0.047544 -0.168653 -0.120801 0.063947 0.119797 -0.003514 -0.061374 0.022596 -0.181102 0.034515 -0.114180 -0.148859 0.030691 0.094850 0.067695 -0.003126 0.100253 0.122188 0.139593 0.074680 -0.094801 0.011117 0.175071 0.210805
0.108544 -0.028965 0.101011 -0.004644 0.063638 0.117523 0.013836 -0.203956 -0.102733 -0.042178 0.101584 -0.117607 -0.083690 -0.088959 -0.034615 0.116889 0.037294 0.117054 -0.028644 -0.077167 0.070710 -0.127654 0.085836 0.064583 -0.162716 -0.111951 0.041521 -0.070986 0.074643 0.118259 0.028949 -0.087256 -0.102361 0.116515 0.125831 0.364367
-0.105852 0.122317 -0.027797 -0.077571 0.018726 0.117950 -0.039392 0.099249 0.045173 -0.030561 0.037641 -0.019301 0.134064 0.112752 -0.006364 -0.122034 0.136209 0.131788 -0.133328 0.061797 0.042848 -0.163529 0.153977 -0.047601 -0.054188 -0.147263 -0.110484 0.002782 0.055471 -0.165747 -0.132644 -0.161892 0.144606 0.177812 0.255764 0.272348
0.085750 -0.124425 -0.003489 -0.125098 0.027851 -0.129217 0.057127 0.151403 0.143948 -0.120821 -0.011839 -0.029327 0.056155 0.080637 0.060205 0.022207 -0.043925 -0.058764 0.026916 -0.107211 0.106637 0.046964 0.091692 0.010399 0.068933 0.060503 0.029616 0.089908 0.002058 0.070731 -0.011003 -0.160883 -0.047532 0.035493 -0.068082 0.321300
-0.052687 0.147230 0.103039 -0.080177 0.146467 -0.012287 0.133390 0.023211 -0.025356 -0.000367 0.065901 0.101497 0.063529 0.176921 -0.094610 0.076677 -0.024362 0.118000 -0.039085 0.135278 -0.015271 -0.013577 -0.001929 0.046191 0.044570 -0.013514 -0.038791 -0.002125 0.182614 0.072662 0.026260 -0.022222 0.016739 0.181136 -0.064753 -0.039249
-0.128450 0.070916 -0.027792 0.033413 0.105745 -0.141762 0.166013 0.117915 -0.067411 0.040158 -0.055515 -0.007173 -0.132276 -0.076639 0.162463 -0.053011 -0.112788 0.020866 -0.082250 0.040992 0.160093 0.118445 0.062225 -0.107425 -0.096300 -0.096997 -0.002943 0.058798 -0.067450 0.023875 0.098809 0.014228 -0.134251 -0.075740 0.157344 0.451147
0.047123 -0.046434 -0.054669 0.045029 -0.012977 -0.038371 -0.134142 -0.139521 0.086156 -0.070338 0.089005 -0.029871 0.103795 0.041833 0.028263 -0.174245 0.102971 -0.135743 0.041161 -0.118392 -0.004425 -0.029266 -0.019546 -0.095967 0.069269 -0.183094 -0.011391 0.027288 0.096659 0.064398 0.028720 0.114991 0.023014 -0.086177 0.041599 -0.257295
-0.001729 0.149911 0.073647 0.088085 -0.077391 -0.061057 -0.077648 0.013986 0.195783 0.007093 0.167532 0.022098 -0.096390 0.040777 0.006123 -0.031667 0.160787 0.089886 -0.070611 0.181597 0.067776 0.018204 -0.061378 -0.057806 0.101150 -0.117627 -0.040573 0.041622 0.140492 0.019150 0.114915 0.111039 0.062987 0.070460 -0.066765 0.038892
-0.150878 0.015193 -0.008870 0.060742 -0.115180 -0.092548 -0.083827 0.008440 0.041249 0.029823 0.102209 0.060983 0.085196 0.113437 0.140729 0.081656 0.115364 -0.040821 0.184214 0.000303 0.204107 0.081762 -0.106047 -0.015389 -0.021725 -0.077411 0.105299 0.035562 -0.054097 0.032292 -0.123923 -0.077083 0.032804 0.014774 0.098670 0.254124
-0.057774 0.066015 0.004177 0.013532 -0.088857 0.061771 0.033851 0.004701 -0.114929 -0.026758 -0.037459 0.155977 0.084163 -0.147104 -0.058508 -0.106522 -0.050409 -0.095644 0.177326 0.012729 0.086076 0.052146 -0.071829 0.028579 0.025482 0.149274 -0.079120 -0.043807 -0.101371 -0.025509 -0.059387 -0.048697 -0.100433 0.132073 0.081206 -0.332429
0.049852 -0.052749 0.074321 0.088823 -0.065977 -0.116416 0.041307 0.054372 -0.077031 0.064334 0.138655 0.157116 0.113879 0.165668 -0.086938 -0.117421 0.064234 -0.111240 0.129472 -0.053683 0.108313 -0.126079 -0.049916 0.007094 -0.085583 0.125408 -0.055531 -0.186814 0.054673 -0.067183 -0.128642 -0.018892 0.022375 0.119087 0.021460 0.293683
-0.077603 0.042052 0.025754 0.044437 -0.093758 -0.117917 0.124388 -0.142155 0.118785 -0.015785 -0.052231 0.082148 0.115440 0.061144 -0.081249 -0.174541 0.015226 -0.006871 0.014283 -0.051255 0.091841 -0.152806 -0.086010 0.113614 0.090986 0.010767 -0.051943 -0.089026 -0.010952 -0.034072 -0.121393 0.091318 0.108282 -0.030360 0.229936 0.314392
-0.065364 -0.151361 0.120310 0.120999 0.012157 0.079794 -0.061697 -0.046632 -0.011124 -0.012431 -0.099748 0.041468 -0.167207 -0.025734 0.010469 -0.007960 -0.074662 0.017970 0.051946 0.031090 -0.008939 -0.144126 -0.090921 0.037284 -0.048450 0.152338 -0.089654 -0.117403 0.129470 0.000144 -0.032520 -0.020398 0.064122 -0.152920 0.017427 -0.182326
0.153873 0.047003 0.128272 0.126274 -0.009939 -0.059340 0.092334 -0.066813 -0.025542 0.040064 -0.092308 0.054704 -0.145522 0.113946 -0.049112 -0.146520 0.160284 -0.033307 0.153084 -0.039960 0.129718 0.076188 0.138243 -0.044141 -0.017971 0.045197 -0.105860 -0.150088 -0.003518 0.119762 0.105024 -0.168485 -0.011939 -0.164645 0.094835 0.075618
-0.194429 0.055112 0.006647 -0.064998 0.116491 0.133940 -0.141372 -0.081453 0.056863 -0.076093 0.130390 -0.036756 -0.067426 -0.113391 0.035618 0.104056 0.050750 0.139665 0.013059 -0.127097 0.076187 0.130430 0.104782 0.042129 -0.152126 -0.056808 0.099599 -0.060945 -0.065955 0.109364 -0.038223 0.002869 -0.155902 0.001949 0.107343 0.329976
-0.032260 0.110152 -0.007505 0.030016 0.015975 0.046762 -0.094826 -0.005666 -0.099981 -0.066727 -0.104381 -0.078196 -0.024793 -0.099921 0.004852 0.080035 -0.104763 -0.029606 -0.049369 -0.061795 0.039897 -0.053658 0.043385 0.171239 -0.052358 0.156443 0.038897 0.117900 0.125992 -0.089684 0.159528 -0.036204 -0.055101 -0.120498 -0.057636 -0.342068
-0.075223 0.070817 -0.024144 0.075998 0.104765 -0.002726 0.053423 -0.061401 -0.039760 0.118422 -0.039227 0.117372 0.063808 0.042241 -0.021514 0.130847 -0.084218 -0.059030 -0.134111 0.127706 -0.081237 0.056508 -0.125204 -0.130778 0.073382 -0.154557 0.022083 -0.009374 -0.055892 -0.016208 -0.041877 0.006525 0.097715 -0.093441 0.161861 0.401407
0.147092 -0.035866 0.032107 -0.001762 -0.136022 -0.048364 -0.062321 0.142315 -0.051697 0.070121 0.082953 -0.154935 -0.007862 -0.079635 -0.117655 -0.196197 0.062120 0.037546 -0.107042 0.022905 -0.175693 0.093791 0.058604 0.131915 -0.085555 0.065360 -0.130656 0.112249 0.050240 0.025367 -0.000974 0.000841 -0.138344 -0.012949 0.039543 -0.261188
-0.053685 0.025494 -0.046955 0.139105 -0.010578 0.086384 -0.064209 -0.071441 0.092195 0.131799 0.080643 -0.042990 0.083770 -0.019761 0.090558 0.048672 0.170951 0.177178 -0.102320 0.006444 -0.105361 0.129077 0.151977 -0.134756 -0.152857 -0.124618 -0.048293 -0.128263 -0.057887 0.021281 0.066998 -0.030036 -0.135963 -0.079902 -0.210898 -0.072387
0.069232 -0.039651 -0.111294 -0.072154 -0.074685 0.015998 -0.078334 0.134230 0.122175 0.014865 -0.070442 -0.089045 0.035323 0.065323 0.031104 -0.096240 0.014121 -0.019063 0.138175 0.101191 -0.037405 -0.085798 0.178104 0.157140 0.044986 -0.037037 0.034084 0.065185 0.014810 -0.083910 0.030843 -0.028582 0.136265 0.034036 -0.104855 0.273126
0.069613 0.014106 0.084736 0.076021 0.027612 -0.059193 -0.103250 0.141356 -0.187460 0.060842 0.017562 0.122062 0.089359 -0.056206 0.063558 -0.005337 0.003466 0.100997 0.104578 -0.064725 -0.107746 -0.123445 0.027742 0.018752 -0.139109 0.027733 -0.037096 -0.120610 0.004192 -0.107270 -0.043678 0.044344 0.068444 -0.099864 -0.089090 -0.169916
-0.064260 0.101062 0.014805 -0.125770 0.112451 -0.053381 0.073653 -0.102501 -0.137801 -0.132934 -0.029359 -0.121865 0.008813 0.090453 -0.077319 -0.154677 -0.028452 -0.083168 0.024855 0.100438 0.050308 -0.070131 -0.198695 -0.103450 -0.137012 -0.145232 -0.011568 0.128762 -0.003067 0.093258 0.127476 -0.092439 0.016593 0.146335 -0.000820 -0.199719
-0.060830 0.081440 0.008327 -0.182578 0.055361 0.067386 -0.107512 0.132587 0.089895 -0.143729 -0.153286 0.052845 -0.005027 -0.127008 0.061661 0.055535 0.043522 -0.017222 -0.026430 -0.175441 0.073350 -0.157404 -0.146753 0.067822 0.085107 -0.104178 0.079075 -0.071990 0.041249 0.163912 0.168867 0.188312 -0.059227 -0.152800 0.064415 -0.387152
-0.067188 -0.179956 0.039639 -0.046731 0.037959 -0.013276 -0.162527 -0.007324 0.085277 0.122176 -0.072793 -0.109698 -0.020585 0.144667 0.111735 -0.124160 -0.073497 -0.048234 -0.027906 -0.031994 0.153002 -0.063686 -0.028284 0.148724 0.129111 0.018730 0.085913 -0.155544 0.053508 -0.070742 0.048569 -0.149612 0.003092 0.156059 0.142991 0.301300
-0.004149 -0.055961 -0.034166 -0.102525 0.142780 -0.032953 0.034435 -0.035112 -0.020921 0.116116 -0.065650 -0.155423 0.145976 -0.082888 0.146592 0.147538 0.107730 -0.047325 0.048495 -0.049254 0.011547 0.089412 0.025601 0.100935 -0.055417 0.033286 -0.114654 0.121783 -0.046499 -0.039443 0.098849 -0.149686 -0.154940 -0.104961 0.027967 0.386804
-0.027516 0.053249 -0.016473 -0.160493 -0.137467 0.096548 0.041456 -0.045234 0.114611 0.123033 0.058293 -0.016229 0.113907 -0.046774 0.099494 -0.057515 0.039660 0.101880 0.099394 -0.105956 -0.031729 0.038153 0.068650 -0.169089 -0.078878 -0.114414 0.146922 -0.071545 0.043891 0.090923 -0.119174 0.100572 -0.020246 -0.176294 -0.039681 -0.299115
-0.051146 -0.140842 -0.028726 -0.034616 -0.117330 0.039997 -0.118661 0.031528 0.071634 -0.094378 0.063548 0.100960 0.064808 -0.104952 0.115704 0.021153 -0.054657 -0.108259 -0.046013 -0.096537 0.039539 0.093208 -0.103944 -0.145183 0.058000 0.183884 0.093264 0.095431 0.032944 0.003038 0.060713 -0.021193 -0.102182 -0.059761 -0.220811 -0.111501
0.142010 0.076174 -0.102885 -0.088345 0.201635 -0.075057 0.134180 -0.094107 -0.096878 0.173507 0.143256 0.081136 -0.085784 0.159660 -0.120997 0.046299 0.019901 -0.050273 -0.096727 0.013444 -0.084151 0.077798 0.047939 0.139589 0.033576 -0.130697 -0.081099 -0.042596 0.171170 -0.082306 -0.127267 -0.003571 -0.161728 -0.121987 -0.127798 -0.198405
0.152805 -0.024922 -0.051412 -0.125345 0.202519 0.109265 0.085365 0.029887 0.179782 0.287022 0.161325 0.270454 0.291394 0.094861 0.271701 0.256148 0.030053 0.187443 0.211931 0.093495 0.320560 0.008237 0.311446 0.284662 0.066884 0.024215 0.219299 0.095656 0.118108 -0.058994 0.116252 0.106512 0.034832 0.261886 0.053619 -0.042306
0.086407 0.094337 0.060933 0.238000 -0.035163 0.218754 -0.049526 0.166714 -0.019654 -0.069237 0.029695 -0.104532 -0.013039 0.108748 -0.025393 -0.148085 -0.033505 0.039129 0.081450 0.153165 0.085942 -0.046774 0.112457 0.186113 0.116511 0.072864 -0.029915 -0.071702 0.118609 -0.007323 0.050004 -0.021232 0.235081 0.169069 0.114310 -0.072477
0.072665 -0.054963 0.105669 -0.002498 0.016974 -0.134417 -0.157655 -0.099050 0.133056 0.080124 0.153019 0.039168 -0.141165 -0.087107 0.095400 -0.131663 -0.113766 0.109140 -0.037378 0.133857 0.178491 -0.056720 -0.091730 0.094337 0.075574 0.102417 -0.099593 0.075473 0.099116 -0.133542 -0.137228 -0.125840 0.143967 -0.094439 0.240771 0.213768
0.191168 -0.132765 0.107456 -0.079202 -0.055585 -0.039072 -0.111428 -0.148798 -0.144093 -0.132862 -0.025622 -0.104676 0.133904 0.066500 0.085147 -0.113731 0.037036 -0.052089 -0.054188 0.136878 0.026685 -0.150114 0.057766 -0.017753 0.028631 0.071158 -0.131426 0.061424 0.135642 -0.102291 0.166423 -0.030705 -0.159787 0.033209 -0.079989 -0.241952
-0.106382 -0.039025 -0.012894 0.168878 -0.117067 0.121743 -0.130081 -0.117071 0.038337 -0.026751 0.086724 0.033300 0.032517 -0.037217 0.077530 -0.045821 -0.159892 0.038660 -0.159871 -0.055508 0.071563 -0.095323 -0.145437 0.157872 -0.140377 0.119903 -0.022060 0.134736 -0.131375 0.147734 0.124337 -0.127041 -0.097446 0.099864 -0.064260 -0.250177
-0.135390 0.166140 0.158592 0.067815 -0.067971 -0.098383 -0.134293 0.099648 0.118449 0.132499 -0.028541 -0.115299 0.147973 0.011979 0.043844 -0.136802 0.035603 0.026170 -0.142665 -0.015691 0.147746 -0.140313 0.142081 0.085127 -0.136259 -0.130301 -0.104012 -0.127855 0.065639 -0.019689 0.137035 -0.091549 -0.015402 0.114465 0.115544 0.332243
0.171545 0.278816 0.198130 0.241643 0.242639 0.255328 0.279470 0.296690 0.133656 0.117644 0.297982 0.332401 0.100826 0.069708 0.108739 0.215193 0.299891 0.249899 0.235791 0.066932 0.070105 0.161272 0.107960 -0.011651 -0.024218 -0.065553 0.000538 0.164009 0.169621 -0.058225 0.223079 -0.024158 0.176359 -0.005000 0.245194 -0.219196
0.157622 -0.123950 -0.004787 -0.158463 0.018786 0.003272 -0.071012 0.069092 0.033252 -0.166327 0.106453 -0.174978 0.091506 -0.131169 0.034795 -0.162820 0.045777 -0.077742 0.004463 0.104996 0.033549 -0.157646 0.072310 0.010326 -0.054018 0.112590 -0.162733 0.069669 0.023327 -0.174610 -0.104364 0.096528 0.136883 0.164586 0.082445 0.419574
-0.104462 -0.056654 0.036572 -0.047667 -0.097809 0.014130 -0.036977 0.068153 -0.123936 0.022886 0.008083 0.107481 -0.045002 0.118751 0.090503 0.134359 0.149288 -0.160868 0.085942 -0.051913 0.120121 -0.168828 0.135469 -0.010543 -0.168181 -0.154345 0.053285 -0.131117 -0.157507 0.129093 -0.090202 0.073405 -0.002619 0.062983 0.027945 -0.348296
-0.107292 -0.042600 0.061216 -0.028448 -0.105931 0.086573 0.056337 0.003852 -0.063574 0.040276 -0.089776 0.067218 0.048340 -0.075503 0.179981 -0.035517 0.155975 -0.140140 0.087360 -0.087826 -0.127301 0.156155 -0.031604 -0.073167 -0.060641 0.080751 -0.166524 0.036682 0.147202 -0.101318 0.123119 -0.014142 0.169670 0.148131 -0.007400 0.319715
-0.100566 0.015461 0.188368 0.148154 -0.059177 -0.006785 0.138957 -0.116246 -0.012432 0.140939 -0.098699 0.140562 -0.034035 -0.089380 -0.003105 0.110225 0.010588 -0.014242 -0.155924 -0.038716 -0.085382 -0.029607 -0.070661 0.029238 0.057027 -0.019139 0.042515 -0.048467 0.089664 -0.041992 -0.094294 -0.002053 0.113762 -0.145472 -0.249679 -0.177492
0.138138 -0.035927 0.071671 -0.124880 0.076037 0.124751 0.136059 0.042079 -0.094928 0.028460 -0.051979 -0.093286 0.076965 -0.022219 0.154052 0.041269 -0.054535 -0.129417 -0.048591 -0.107210 -0.114288 -0.024683 0.065610 -0.088941 0.077756 -0.012892 0.067524 0.071150 -0.159108 0.049862 -0.137681 0.008706 -0.006633 0.122409 0.211293 0.196815
-0.137597 0.113288 -0.060207 0.040638 -0.010313 -0.004912 0.115161 0.031970 -0.139143 0.173162 -0.077007 -0.067197 -0.052887 0.073404 -0.114677 -0.010845 0.116228 -0.078027 0.128456 -0.004364 0.030562 -0.043752 -0.066398 0.160097 0.053806 0.104672 0.063229 -0.033586 -0.127846 -0.026302 -0.156845 0.112171 -0.124229 -0.035088 0.221307 0.301483
-0.069823 -0.104327 -0.044119 0.103240 -0.160719 0.002803 -0.107973 0.055730 -0.029661 -0.120954 -0.056332 0.064186 0.064168 0.034344 -0.088481 0.098513 -0.131068 0.156988 0.155637 0.022378 -0.033169 0.150491 -0.106034 0.124211 0.000071 0.007270 0.128716 0.055350 0.145809 -0.073545 0.134552 -0.141204 0.132517 -0.090727 0.160251 -0.265277
0.199784 -0.086668 0.008139 0.096123 0.125579 0.009534 0.175111 0.147615 0.036562 -0.030342 0.200217 0.097801 -0.083143 0.114856 0.177379 -0.042557 0.091074 -0.044519 -0.108644 0.075935 0.199777 0.211501 0.001560 0.183499 0.150767 -0.049446 -0.119349 0.052600 -0.134285 0.018098 -0.063662 0.098878 -0.077278 -0.194044 -0.053076 -0.096027
-0.067895 0.103443 -0.057060 -0.106305 0.063902 -0.129403 0.129739 0.167795 -0.107469 0.095538 0.113719 -0.032650 0.092547 0.064060 0.065651 -0.083441 0.167795 0.158130 -0.095547 0.055977 0.114708 0.039061 0.077054 -0.138130 0.077728 -0.124822 -0.063236 -0.087856 0.016567 -0.085558 0.059487 -0.083652 -0.162872 0.042352 -0.028411 -0.419818
0.069393 0.034588 -0.037354 -0.109858 -0.123796 0.126452 0.073010 0.062163 0.002242 -0.067481 0.029802 -0.081051 -0.007944 0.171791 -0.061703 0.161776 -0.135309 0.018300 0.027623 -0.007288 0.063153 0.031101 0.165102 -0.117269 0.097147 0.115238 0.133131 -0.066584 0.004028 0.015026 -0.052639 0.026163 -0.027042 -0.111484 0.026678 0.066211
-0.031933 -0.038017 0.085744 -0.017328 -0.029685 -0.052259 -0.034024 0.115913 0.066729 0.092228 -0.130871 0.012518 -0.012989 -0.096308 0.026490 0.016536 -0.113773 -0.155900 -0.043632 0.126385 0.126229 0.096306 0.103872 -0.075538 0.117139 -0.130156 0.020112 -0.094515 -0.092321 -0.093436 -0.052976 0.057040 0.158926 0.116749 -0.229317 -0.222243
0.017130 -0.016815 -0.070966 0.057536 -0.156406 -0.004203 0.056730 -0.020091 -0.136372 -0.159930 0.116764 0.014016 0.026531 -0.046210 -0.157347 0.155311 -0.021123 -0.063597 -0.163150 -0.067663 -0.104933 0.003355 0.042159 0.118490 -0.043640 -0.121481 0.089637 0.036625 0.000570 0.034485 0.095241 0.040005 0.101783 0.166515 0.050980 0.277814
0.090742 -0.022195 -0.010736 -0.137706 0.002585 -0.088953 -0.013473 0.112805 -0.008364 0.139566 -0.049579 0.146807 0.069034 0.000740 -0.147369 -0.125365 0.004768 0.145870 -0.147973 0.034407 -0.079491 0.017152 0.042972 0.119389 -0.082401 -0.187149 0.051100 0.011695 -0.041685 -0.083550 -0.113741 -0.054946 -0.037858 0.157733 0.195106 0.414779
